{"learner":{"attributes":{"best_iteration":"999","best_ntree_limit":"1000","scikit_learn":"{\"use_label_encoder\": null, \"n_estimators\": 1000, \"objective\": \"binary:logistic\", \"max_depth\": null, \"max_leaves\": null, \"max_bin\": null, \"grow_policy\": null, \"learning_rate\": null, \"verbosity\": null, \"booster\": null, \"tree_method\": null, \"gamma\": null, \"min_child_weight\": null, \"max_delta_step\": null, \"subsample\": null, \"sampling_method\": null, \"colsample_bytree\": null, \"colsample_bylevel\": null, \"colsample_bynode\": null, \"reg_alpha\": null, \"reg_lambda\": null, \"scale_pos_weight\": null, \"base_score\": null, \"missing\": NaN, \"num_parallel_tree\": null, \"random_state\": null, \"n_jobs\": null, \"monotone_constraints\": null, \"interaction_constraints\": null, \"importance_type\": null, \"gpu_id\": null, \"validate_parameters\": null, \"predictor\": null, \"enable_categorical\": false, \"feature_types\": null, \"max_cat_to_onehot\": null, \"max_cat_threshold\": null, \"eval_metric\": null, \"early_stopping_rounds\": null, \"callbacks\": null, \"classes_\": [0, 1], \"n_classes_\": 2, \"_estimator_type\": \"classifier\"}"},"feature_names":[],"feature_types":[],"gradient_booster":{"model":{"gbtree_model_param":{"num_parallel_tree":"1","num_trees":"1000","size_leaf_vector":"0"},"tree_info":[0,0,0,0,0,0,0,0,0,0,0,0,0,0,0,0,0,0,0,0,0,0,0,0,0,0,0,0,0,0,0,0,0,0,0,0,0,0,0,0,0,0,0,0,0,0,0,0,0,0,0,0,0,0,0,0,0,0,0,0,0,0,0,0,0,0,0,0,0,0,0,0,0,0,0,0,0,0,0,0,0,0,0,0,0,0,0,0,0,0,0,0,0,0,0,0,0,0,0,0,0,0,0,0,0,0,0,0,0,0,0,0,0,0,0,0,0,0,0,0,0,0,0,0,0,0,0,0,0,0,0,0,0,0,0,0,0,0,0,0,0,0,0,0,0,0,0,0,0,0,0,0,0,0,0,0,0,0,0,0,0,0,0,0,0,0,0,0,0,0,0,0,0,0,0,0,0,0,0,0,0,0,0,0,0,0,0,0,0,0,0,0,0,0,0,0,0,0,0,0,0,0,0,0,0,0,0,0,0,0,0,0,0,0,0,0,0,0,0,0,0,0,0,0,0,0,0,0,0,0,0,0,0,0,0,0,0,0,0,0,0,0,0,0,0,0,0,0,0,0,0,0,0,0,0,0,0,0,0,0,0,0,0,0,0,0,0,0,0,0,0,0,0,0,0,0,0,0,0,0,0,0,0,0,0,0,0,0,0,0,0,0,0,0,0,0,0,0,0,0,0,0,0,0,0,0,0,0,0,0,0,0,0,0,0,0,0,0,0,0,0,0,0,0,0,0,0,0,0,0,0,0,0,0,0,0,0,0,0,0,0,0,0,0,0,0,0,0,0,0,0,0,0,0,0,0,0,0,0,0,0,0,0,0,0,0,0,0,0,0,0,0,0,0,0,0,0,0,0,0,0,0,0,0,0,0,0,0,0,0,0,0,0,0,0,0,0,0,0,0,0,0,0,0,0,0,0,0,0,0,0,0,0,0,0,0,0,0,0,0,0,0,0,0,0,0,0,0,0,0,0,0,0,0,0,0,0,0,0,0,0,0,0,0,0,0,0,0,0,0,0,0,0,0,0,0,0,0,0,0,0,0,0,0,0,0,0,0,0,0,0,0,0,0,0,0,0,0,0,0,0,0,0,0,0,0,0,0,0,0,0,0,0,0,0,0,0,0,0,0,0,0,0,0,0,0,0,0,0,0,0,0,0,0,0,0,0,0,0,0,0,0,0,0,0,0,0,0,0,0,0,0,0,0,0,0,0,0,0,0,0,0,0,0,0,0,0,0,0,0,0,0,0,0,0,0,0,0,0,0,0,0,0,0,0,0,0,0,0,0,0,0,0,0,0,0,0,0,0,0,0,0,0,0,0,0,0,0,0,0,0,0,0,0,0,0,0,0,0,0,0,0,0,0,0,0,0,0,0,0,0,0,0,0,0,0,0,0,0,0,0,0,0,0,0,0,0,0,0,0,0,0,0,0,0,0,0,0,0,0,0,0,0,0,0,0,0,0,0,0,0,0,0,0,0,0,0,0,0,0,0,0,0,0,0,0,0,0,0,0,0,0,0,0,0,0,0,0,0,0,0,0,0,0,0,0,0,0,0,0,0,0,0,0,0,0,0,0,0,0,0,0,0,0,0,0,0,0,0,0,0,0,0,0,0,0,0,0,0,0,0,0,0,0,0,0,0,0,0,0,0,0,0,0,0,0,0,0,0,0,0,0,0,0,0,0,0,0,0,0,0,0,0,0,0,0,0,0,0,0,0,0,0,0,0,0,0,0,0,0,0,0,0,0,0,0,0,0,0,0,0,0,0,0,0,0,0,0,0,0,0,0,0,0,0,0,0,0,0,0,0,0,0,0,0,0,0,0,0,0,0,0,0,0,0,0,0,0,0,0,0,0,0,0,0,0,0,0,0,0,0,0,0,0,0,0,0,0,0,0,0,0,0,0,0,0,0,0,0,0,0,0,0,0,0,0,0,0,0,0,0,0,0,0,0,0,0,0,0,0,0,0,0,0,0,0,0,0,0,0,0,0,0,0,0,0,0,0,0,0,0,0,0,0,0,0,0,0,0,0,0,0,0,0,0,0,0,0,0,0,0,0,0,0,0,0,0,0,0,0,0,0,0,0,0,0,0,0,0,0,0,0,0,0,0,0,0,0,0,0,0,0,0,0,0,0,0,0,0,0,0,0,0,0,0,0,0,0,0,0,0,0,0,0,0,0,0,0,0,0,0,0,0,0,0,0,0,0,0,0,0,0,0,0,0,0,0,0,0,0,0,0,0,0,0,0,0,0,0,0],"trees":[{"base_weights":[-1.3331556E-3,-1.3622195E-2,7.809003E-2,-7.7323653E-3,-2.4572317E-1,1.9685039E-1,-4.315103E-2,-1.4467735E-2,1.5264188E-1,-1.2875536E-1,-5.414365E-1,1.5957446E-1,6.4102566E-1,1.3855422E-1,-1.3353339E-1,-2.9582882E-2,6.1204344E-2,4.4094488E-1,5.699482E-2,-1E0,-1.04803495E-1,-7.222222E-1,1.4634146E-1,8.405797E-1,1.3333334E-1,3.181818E-1,1E0,5.046729E-1,6.7736186E-2,-4.511278E-2,-4.7619048E-1,-2.7963046E-2,-7.5555557E-1,9.990575E-2,-8.0183275E-2,2.826087E-1,8.108108E-1,2.857143E-1,-4.8964217E-2,8.5714287E-1,-1.3392857E-1,-2.5E-1,-1.0476191E0,5E-1,-7.692308E-1,1.3333334E0,-2.4E-1,1.9067502E-1,-8.3769634E-2,-8E-1,4.390244E-1,1.1384616E0,-1.8181819E-1,-4E-1,7.4418604E-1,-2.4203822E-1,1.8627451E-1,-9.9378884E-2,4.7058824E-1,-1.8518518E-1,-6.5088755E-1,7.198443E-2,-3.9254494E-2,-1.2222222E0,7.692308E-1,-1.183432E-2,1.8201634E-1,-2.2335026E-1,3.726708E-2,8.8372093E-1,9.6551724E-2,1.1333333E0,-4.4444445E-1,-3.283582E-1,5.0549453E-1,1.0769231E0,-7.662835E-2,1.1111112E0,2.2222222E-1,-5.2478135E-2,-3.853211E-1,6.666667E-1,-4.2857143E-1,-1.3103448E0,-4E-1,8.5714287E-1,-1E0,-2.2222222E-1,-1E0,1.5121951E0,1.8181819E-1,-6.666667E-1,1E0,2.0310296E-1,-6.086956E-1,3.1325302E-1,-1.9141914E-1,5.945946E-1,-6.666667E-1,1.245283E0,5E-1,-8.888889E-1,5.4545456E-1,1E0,1.3333334E-1,5.263158E-1,-4.715447E-1,-1.19205296E-1,3.6015326E-1,-2.6385223E-2,-3.5849056E-1,-4.2857143E-1,7.692308E-1,-3.478261E-1,6E-1,4.6153846E-1,-7.25E-1],"categories":[],"categories_nodes":[],"categories_segments":[],"categories_sizes":[],"default_left":[1,1,1,1,1,1,1,1,1,1,1,1,1,1,1,1,1,1,1,0,1,1,1,1,1,1,1,1,1,1,1,1,1,1,1,1,1,1,1,1,1,1,1,1,1,1,1,1,1,0,1,1,0,1,1,1,1,1,1,1,1,0,0,0,0,0,0,0,0,0,0,0,0,0,0,0,0,0,0,0,0,0,0,0,0,0,0,0,0,0,0,0,0,0,0,0,0,0,0,0,0,0,0,0,0,0,0,0,0,0,0,0,0,0,0,0,0],"id":0,"left_children":[1,3,5,7,9,11,13,15,17,19,21,23,25,27,29,31,33,35,37,-1,39,41,43,45,47,49,51,53,55,57,59,61,63,65,67,69,71,73,75,77,79,81,83,85,87,89,91,93,95,-1,97,99,-1,101,103,105,107,109,111,113,115,-1,-1,-1,-1,-1,-1,-1,-1,-1,-1,-1,-1,-1,-1,-1,-1,-1,-1,-1,-1,-1,-1,-1,-1,-1,-1,-1,-1,-1,-1,-1,-1,-1,-1,-1,-1,-1,-1,-1,-1,-1,-1,-1,-1,-1,-1,-1,-1,-1,-1,-1,-1,-1,-1,-1,-1],"loss_changes":[7.3223004E0,8.879387E0,1.4482719E1,6.8473086E0,5.4904585E0,8.308685E0,8.201236E0,6.9589405E0,7.0203657E0,2.3263113E0,5.7320986E0,8.286988E0,4.2016315E0,4.2698307E0,1.0075308E1,5.9415607E0,5.5510454E0,3.4896183E0,4.691324E0,0E0,3.3227153E0,5.2698402E0,3.7035646E0,9.504929E0,5.664729E0,3.3239467E0,3.1524487E0,6.0938926E0,5.1950855E0,7.490799E0,3.349144E0,5.71358E0,8.945299E0,7.3031955E0,3.6781998E0,5.059366E0,7.993394E0,8.4323435E0,4.217247E0,3.174603E-1,2.273095E0,2.9047618E0,3.048933E0,5.142857E0,1.880343E-1,2.1966E0,3.973333E0,3.6926088E0,4.141565E0,0E0,3.9226546E0,4.8563194E-1,0E0,3.3737373E0,3.2263565E0,7.169614E0,5.4608088E0,4.5581536E0,7.177117E0,3.6566827E0,3.8178997E0,0E0,0E0,0E0,0E0,0E0,0E0,0E0,0E0,0E0,0E0,0E0,0E0,0E0,0E0,0E0,0E0,0E0,0E0,0E0,0E0,0E0,0E0,0E0,0E0,0E0,0E0,0E0,0E0,0E0,0E0,0E0,0E0,0E0,0E0,0E0,0E0,0E0,0E0,0E0,0E0,0E0,0E0,0E0,0E0,0E0,0E0,0E0,0E0,0E0,0E0,0E0,0E0,0E0,0E0,0E0,0E0],"parents":[2147483647,0,0,1,1,2,2,3,3,4,4,5,5,6,6,7,7,8,8,9,9,10,10,11,11,12,12,13,13,14,14,15,15,16,16,17,17,18,18,20,20,21,21,22,22,23,23,24,24,25,25,26,26,27,27,28,28,29,29,30,30,31,31,32,32,33,33,34,34,35,35,36,36,37,37,38,38,39,39,40,40,41,41,42,42,43,43,44,44,45,45,46,46,47,47,48,48,50,50,51,51,53,53,54,54,55,55,56,56,57,57,58,58,59,59,60,60],"right_children":[2,4,6,8,10,12,14,16,18,20,22,24,26,28,30,32,34,36,38,-1,40,42,44,46,48,50,52,54,56,58,60,62,64,66,68,70,72,74,76,78,80,82,84,86,88,90,92,94,96,-1,98,100,-1,102,104,106,108,110,112,114,116,-1,-1,-1,-1,-1,-1,-1,-1,-1,-1,-1,-1,-1,-1,-1,-1,-1,-1,-1,-1,-1,-1,-1,-1,-1,-1,-1,-1,-1,-1,-1,-1,-1,-1,-1,-1,-1,-1,-1,-1,-1,-1,-1,-1,-1,-1,-1,-1,-1,-1,-1,-1,-1,-1,-1,-1],"split_conditions":[9.0575E1,4.895E2,1.1800549E3,1.73226E3,5.65E1,1.0903201E3,9.3615005E1,6.15E1,1.7956951E3,6.2535004E1,7.9505005E1,6.35E1,2.94E2,2.65E1,5E-1,9.0405E1,5E-1,3.695E2,1.91E2,-3E-1,8.29E1,4.945E2,5E-1,7.02005E2,5E-1,2.25E1,6.6E1,1.95E1,9.1384995E1,4.675E2,2.24E2,1.57305E2,5.3E1,2.335E2,6.55E1,7.5875E1,5E-1,8.2065E1,7.5770004E1,6.6E1,7.693E1,1.18520004E2,5E-1,1.82129E3,6.15E1,5E-1,6.15E1,1.080255E3,1.9770001E2,-2.4000001E-1,2.675E2,5E-1,-5.454546E-2,3.175E2,9.2505005E1,9.0785E1,1.588395E3,3.805E2,3.25E1,2.1729102E3,9.397E1,2.159533E-2,-1.1776349E-2,-3.6666667E-1,2.3076925E-1,-3.550296E-3,5.4604907E-2,-6.700508E-2,1.1180125E-2,2.651163E-1,2.8965518E-2,3.4E-1,-1.3333334E-1,-9.8507464E-2,1.5164837E-1,3.2307696E-1,-2.2988506E-2,3.3333337E-1,6.666667E-2,-1.5743442E-2,-1.1559634E-1,2.0000002E-1,-1.2857144E-1,-3.9310345E-1,-1.20000005E-1,2.5714287E-1,-3E-1,-6.666667E-2,-3E-1,4.5365855E-1,5.454546E-2,-2.0000002E-1,3E-1,6.093089E-2,-1.826087E-1,9.397591E-2,-5.7425745E-2,1.7837839E-1,-2.0000002E-1,3.7358493E-1,1.5E-1,-2.6666668E-1,1.6363637E-1,3E-1,4.0000003E-2,1.5789475E-1,-1.4146341E-1,-3.576159E-2,1.0804598E-1,-7.915568E-3,-1.0754717E-1,-1.2857144E-1,2.3076925E-1,-1.0434783E-1,1.8E-1,1.3846155E-1,-2.1750002E-1],"split_indices":[1,2,3,3,0,3,1,0,3,3,1,2,2,0,10,1,12,2,2,0,3,2,15,3,11,0,0,0,1,2,2,3,0,2,0,1,10,1,1,1,1,3,15,3,0,12,2,3,3,0,2,10,0,2,1,1,3,2,0,3,1,0,0,0,0,0,0,0,0,0,0,0,0,0,0,0,0,0,0,0,0,0,0,0,0,0,0,0,0,0,0,0,0,0,0,0,0,0,0,0,0,0,0,0,0,0,0,0,0,0,0,0,0,0,0,0,0],"split_type":[0,0,0,0,0,0,0,0,0,0,0,0,0,0,0,0,0,0,0,0,0,0,0,0,0,0,0,0,0,0,0,0,0,0,0,0,0,0,0,0,0,0,0,0,0,0,0,0,0,0,0,0,0,0,0,0,0,0,0,0,0,0,0,0,0,0,0,0,0,0,0,0,0,0,0,0,0,0,0,0,0,0,0,0,0,0,0,0,0,0,0,0,0,0,0,0,0,0,0,0,0,0,0,0,0,0,0,0,0,0,0,0,0,0,0,0,0],"sum_hessian":[7.5E3,6.49575E3,1.00425E3,6.336E3,1.5975E2,5.07E2,4.9725E2,6.0815E3,2.545E2,1.155E2,4.425E1,4.69E2,3.8E1,1.65E2,3.3225E2,5.0695E3,1.012E3,6.25E1,1.92E2,2E0,1.135E2,3.5E1,9.25E0,1.625E1,4.5275E2,2.1E1,1.7E1,2.575E1,1.3925E2,2.65E2,6.725E1,5.05925E3,1.025E1,7.9475E2,2.1725E2,4.5E1,1.75E1,6.025E1,1.3175E2,2.5E0,1.11E2,1.5E1,2E1,7E0,2.25E0,1.1E1,5.25E0,3.5825E2,9.45E1,1.5E0,1.95E1,1.525E1,1.75E0,5.25E0,2.05E1,3.825E1,1.01E2,2.405E2,2.45E1,2.6E1,4.125E1,5.13E2,4.54625E3,8E0,2.25E0,3.37E2,4.5775E2,9.75E1,1.1975E2,9.75E0,3.525E1,1.4E1,3.5E0,1.575E1,4.45E1,2.25E0,1.295E2,1.25E0,1.25E0,8.475E1,2.625E1,2E0,1.3E1,1.35E1,6.5E0,6E0,1E0,1.25E0,1E0,9.25E0,1.75E0,4.25E0,1E0,3.535E2,4.75E0,1.975E1,7.475E1,1.75E1,2E0,1.225E1,3E0,3.5E0,1.75E0,1.4E1,6.5E0,8.5E0,2.975E1,3.675E1,6.425E1,1.885E2,5.2E1,6E0,1.85E1,2.2E1,4E0,2.25E0,3.9E1],"tree_param":{"num_deleted":"0","num_feature":"19","num_nodes":"117","size_leaf_vector":"0"}},{"base_weights":[-8.000402E-4,1.3689278E-1,-5.053913E-3,9.572982E-2,7.279165E-1,-1.320123E-4,-1.16229616E-1,4.4798106E-1,3.6350023E-2,1.3380216E0,1.0277732E-1,-3.7870467E-2,1.6824583E-2,-7.2398096E-1,-8.277995E-2,1.3279554E-1,7.8670835E-1,5.2989762E-2,-9.804539E-1,7.066148E-1,-4.906168E-1,-1.9188473E-2,-2.2680652E-1,1.1062927E-4,1.6707826E-1,-8.888997E-1,6.754362E-1,-1.5884638E-1,2.0340739E-1,4.755814E-1,-3.3495843E-1,9.950533E-2,1.0184903E0,1.777364E-1,-7.512474E-2,3.7423607E-2,1.2277243E0,-1.2514291E0,3.711311E-1,4.9398176E-2,-8.8702746E-2,5.5893738E-2,-4.2952037E-1,2.3731607E-1,-6.0759885E-3,9.52165E-2,3.8228473E-1,-1.1411753E0,-3.311232E-1,-7.4433014E-2,-4.1421676E-1,4.0018368E-1,-3.5342225E-1,9.723283E-1,-7.1613834E-4,-8.3421606E-1,2.110047E-1,5.677932E-1,-6.731024E-1,1.2508609E0,4.945862E-1,-1.3377717E-1,3.5364455E-1,-1.8649457E-1,1.8977991E-1,2.0777984E-1,8.195318E-4,-1.0079053E-1,3.954511E-1,-3.6371258E-1,4.0470916E-1,-1.3207412E0,-3.375414E-1,-7.618619E-1,2.972063E-1,-6.371199E-1,-3.973505E-3,-6.125187E-3,2.5212643E-1,1.3686946E-1,5.613448E-1,2.4316186E-1,-1.3741301E0,3.9005777E-1,-6.5620863E-1,-5.994527E-1,1.7152391E-2,-2.0329747E-1,-1.0745401E0,9.7712237E-1,2.8195506E-1,-7.0504534E-1,3.9461648E-1],"categories":[],"categories_nodes":[],"categories_segments":[],"categories_sizes":[],"default_left":[1,1,1,1,1,1,1,1,1,0,1,1,1,1,1,1,1,1,0,1,1,1,1,1,1,1,0,1,1,1,1,1,1,1,1,0,0,0,0,1,1,1,1,1,1,1,1,1,1,1,1,1,1,0,0,0,0,0,0,0,0,0,0,0,0,0,0,0,0,0,0,0,0,0,0,0,0,0,0,0,0,0,0,0,0,0,0,0,0,0,0,0,0],"id":1,"left_children":[1,3,5,7,9,11,13,15,17,-1,19,21,23,25,27,29,31,33,-1,35,37,39,41,43,45,47,-1,49,51,53,55,57,59,61,63,-1,-1,-1,-1,65,67,69,71,73,75,77,79,81,83,85,87,89,91,-1,-1,-1,-1,-1,-1,-1,-1,-1,-1,-1,-1,-1,-1,-1,-1,-1,-1,-1,-1,-1,-1,-1,-1,-1,-1,-1,-1,-1,-1,-1,-1,-1,-1,-1,-1,-1,-1,-1,-1],"loss_changes":[4.390589E0,5.3954167E0,3.9787192E0,4.40056E0,5.383379E0,4.4569325E0,6.206609E0,3.1382313E0,3.1277442E0,0E0,3.296593E0,7.6171722E0,1.2068508E1,4.281891E0,6.417304E0,2.8748758E0,2.198163E0,2.887096E0,0E0,1.5199115E0,3.5737638E0,9.378025E0,1.115323E1,6.349211E0,7.4031963E0,1.6908674E0,0E0,4.976283E0,6.937747E0,2.4109528E0,2.2883086E0,2.1005485E0,6.8241596E-1,5.0558815E0,2.6732569E0,0E0,0E0,0E0,0E0,7.6189413E0,5.756318E0,1.2147071E1,8.834984E0,6.807364E0,5.5918756E0,5.7573442E0,5.2004642E0,3.466919E0,1.6596687E0,8.463024E0,7.787915E0,2.882625E0,4.677882E0,0E0,0E0,0E0,0E0,0E0,0E0,0E0,0E0,0E0,0E0,0E0,0E0,0E0,0E0,0E0,0E0,0E0,0E0,0E0,0E0,0E0,0E0,0E0,0E0,0E0,0E0,0E0,0E0,0E0,0E0,0E0,0E0,0E0,0E0,0E0,0E0,0E0,0E0,0E0,0E0],"parents":[2147483647,0,0,1,1,2,2,3,3,4,4,5,5,6,6,7,7,8,8,10,10,11,11,12,12,13,13,14,14,15,15,16,16,17,17,19,19,20,20,21,21,22,22,23,23,24,24,25,25,27,27,28,28,29,29,30,30,31,31,32,32,33,33,34,34,39,39,40,40,41,41,42,42,43,43,44,44,45,45,46,46,47,47,48,48,49,49,50,50,51,51,52,52],"right_children":[2,4,6,8,10,12,14,16,18,-1,20,22,24,26,28,30,32,34,-1,36,38,40,42,44,46,48,-1,50,52,54,56,58,60,62,64,-1,-1,-1,-1,66,68,70,72,74,76,78,80,82,84,86,88,90,92,-1,-1,-1,-1,-1,-1,-1,-1,-1,-1,-1,-1,-1,-1,-1,-1,-1,-1,-1,-1,-1,-1,-1,-1,-1,-1,-1,-1,-1,-1,-1,-1,-1,-1,-1,-1,-1,-1,-1,-1],"split_conditions":[6.35E1,9.529E1,4.825E2,2.07465E2,8.77275E2,4.6665E2,3.4265E1,4.35E1,9.4744995E1,4.014065E-1,9.7325E1,4.455E2,4.415E2,4.995E2,5E-1,5E-1,8.632E1,5.65E1,-2.941362E-1,9.675E1,5.35E1,5E-1,4.679E1,4.90735E2,5E-1,5E-1,2.0263086E-1,5E-1,5E-1,5.45E1,5.45E1,5E-1,5.6010002E1,6.3364E2,5E-1,1.1227082E-2,3.683173E-1,-3.7542874E-1,1.1133933E-1,1.3238E2,5.0670594E-1,3.621E1,4.9010002E1,3.2075E1,6.45E1,5E-1,6.59395E2,3.0634998E1,1.4499E2,4.5550003E1,5E-1,4.296E1,4.945E2,2.9169852E-1,-2.1484151E-4,-2.5026482E-1,6.3301414E-2,1.7033796E-1,-2.0193072E-1,3.752583E-1,1.4837587E-1,-4.0133152E-2,1.0609337E-1,-5.5948373E-2,5.6933973E-2,6.2333953E-2,2.4585956E-4,-3.023716E-2,1.18635334E-1,-1.09113775E-1,1.21412754E-1,-3.9622238E-1,-1.0126243E-1,-2.2855859E-1,8.9161895E-2,-1.9113597E-1,-1.1920516E-3,-1.8375561E-3,7.563793E-2,4.106084E-2,1.6840345E-1,7.294856E-2,-4.1223904E-1,1.17017336E-1,-1.968626E-1,-1.7983581E-1,5.1457174E-3,-6.0989242E-2,-3.2236207E-1,2.9313672E-1,8.458652E-2,-2.1151361E-1,1.1838495E-1],"split_indices":[2,1,2,3,3,3,1,0,1,0,1,2,2,2,12,7,3,2,0,1,2,7,1,3,15,5,0,17,15,2,2,9,1,3,15,0,0,0,0,3,18,1,1,1,2,5,3,1,3,1,10,1,2,0,0,0,0,0,0,0,0,0,0,0,0,0,0,0,0,0,0,0,0,0,0,0,0,0,0,0,0,0,0,0,0,0,0,0,0,0,0,0,0],"split_type":[0,0,0,0,0,0,0,0,0,0,0,0,0,0,0,0,0,0,0,0,0,0,0,0,0,0,0,0,0,0,0,0,0,0,0,0,0,0,0,0,0,0,0,0,0,0,0,0,0,0,0,0,0,0,0,0,0,0,0,0,0,0,0,0,0,0,0,0,0,0,0,0,0,0,0,0,0,0,0,0,0,0,0,0,0,0,0,0,0,0,0,0,0],"sum_hessian":[7.4937744E3,2.2363977E2,7.270135E3,2.1016444E2,1.3475325E1,6.9628794E3,3.0725504E2,2.9373201E1,1.8079124E2,6.2425475E0,7.232777E0,2.1582542E3,4.8046255E3,1.4951703E1,2.9230334E2,1.5936417E1,1.3436784E1,1.788129E2,1.9783422E0,3.4902744E0,3.7425027E0,1.9650515E3,1.9320268E2,4.324569E3,4.8005667E2,1.370178E1,1.2499225E0,2.312767E2,6.1026638E1,9.18708E0,6.749336E0,3.7494533E0,9.68733E0,9.040102E1,8.841188E1,1.9972671E0,1.4930073E0,1.747493E0,1.9950097E0,9.89271E2,9.7578046E2,8.098586E1,1.1221683E2,1.0897366E2,4.215595E3,3.6096548E2,1.1909118E2,8.714418E0,4.9873614E0,1.7479065E2,5.648605E1,4.5299652E1,1.5726985E1,3.987231E0,5.1998496E0,3.2496827E0,3.4996533E0,2.4995425E0,1.2499111E0,5.7495975E0,3.9377332E0,3.2711727E1,5.768929E1,6.245209E1,2.5959791E1,2.3143686E2,7.5783417E2,9.5278424E2,2.2996185E1,3.6743134E1,4.4242733E1,9.2481985E0,1.0296863E2,5.499632E0,1.0347403E2,1.2995734E1,4.202599E3,2.1990125E2,1.4106424E2,5.098154E1,6.810964E1,1.2489145E0,7.465504E0,1.4875239E0,3.4998379E0,2.5138302E1,1.4965234E2,4.380258E1,1.2683466E1,6.4686894E0,3.8830963E1,1.0737289E1,4.9896955E0],"tree_param":{"num_deleted":"0","num_feature":"19","num_nodes":"93","size_leaf_vector":"0"}},{"base_weights":[-5.5727165E-4,1.4884795E-4,-7.31018E-1,-6.332693E-3,8.2447655E-2,-1.0726533E0,2.1701045E-1,-5.5233063E-3,-6.867023E-1,2.074899E-1,-1.7902784E-2,-1.4198147E0,-3.0886206E-1,-1.9421264E-3,-1.4661604E-1,-1.2164408E0,9.919732E-2,1.4747201E0,1.8425918E-1,-4.3594826E-2,6.8002397E-1,-1.9143302E-2,2.7034936E-2,-5.4878354E-2,-3.7783116E-1,-1.4870983E0,-2.2385335E-1,8.9003235E-1,-8.1096643E-1,5.4071724E-1,1.1571428E-1,-7.302678E-2,5.879253E-1,9.679324E-1,-3.059518E-1,-7.532244E-3,-1.2139557E-1,5.939649E-1,1.7939003E-2,-7.925547E-1,-3.6673576E-2,-3.0349188E-2,-5.4359984E-1,-3.9857715E-1,5.9402E-1,6.111261E-2,6.736767E-1,-3.373072E-3,-3.3066976E-1,1.02068065E-2,1.064378E0,1.222411E0,3.0197927E-1],"categories":[],"categories_nodes":[],"categories_segments":[],"categories_sizes":[],"default_left":[1,1,1,1,1,1,0,1,1,1,1,0,0,1,1,1,1,0,1,1,1,1,1,1,1,0,0,0,0,1,1,1,1,1,0,0,0,0,0,0,0,0,0,0,0,0,0,0,0,0,0,0,0],"id":2,"left_children":[1,3,5,7,9,11,-1,13,15,17,19,-1,-1,21,23,25,27,-1,29,31,33,35,37,39,41,-1,-1,-1,-1,43,45,47,49,51,-1,-1,-1,-1,-1,-1,-1,-1,-1,-1,-1,-1,-1,-1,-1,-1,-1,-1,-1],"loss_changes":[3.862935E0,3.9920604E0,2.5753236E0,3.8165667E0,6.859585E0,1.015883E0,0E0,3.5014312E0,3.54913E0,6.8917828E0,5.481308E0,0E0,0E0,3.369837E0,3.6177125E0,1.0089335E0,3.7740238E0,0E0,5.8038645E0,5.510781E0,3.377533E0,5.0358467E0,1.297604E1,1.6358726E0,2.7804103E0,0E0,0E0,0E0,0E0,2.1618948E0,6.132638E0,5.059019E0,3.6252952E0,1.0953875E0,0E0,0E0,0E0,0E0,0E0,0E0,0E0,0E0,0E0,0E0,0E0,0E0,0E0,0E0,0E0,0E0,0E0,0E0,0E0],"parents":[2147483647,0,0,1,1,2,2,3,3,4,4,5,5,7,7,8,8,9,9,10,10,13,13,14,14,15,15,16,16,18,18,19,19,20,20,21,21,22,22,23,23,24,24,29,29,30,30,31,31,32,32,33,33],"right_children":[2,4,6,8,10,12,-1,14,16,18,20,-1,-1,22,24,26,28,-1,30,32,34,36,38,40,42,-1,-1,-1,-1,44,46,48,50,52,-1,-1,-1,-1,-1,-1,-1,-1,-1,-1,-1,-1,-1,-1,-1,-1,-1,-1,-1],"split_conditions":[2.35908E3,9.4705E1,5E-1,9.4645004E1,1.057375E3,9.932E1,6.5103136E-2,4.895E2,2.495E2,9.4755005E1,4.865E2,-4.2594442E-1,-9.2658624E-2,9.01525E2,5.65E1,5E-1,5E-1,4.4241604E-1,1.205E2,6.85E1,9.856E1,8.0318994E2,9.10605E2,6.2535004E1,4.935E2,-4.4612953E-1,-6.715601E-2,2.670097E-1,-2.4328993E-1,9.611E1,9.5694995E2,5E-1,1.69903E3,5E-1,-9.178554E-2,-2.2596733E-3,-3.6418673E-2,1.7818947E-1,5.381701E-3,-2.3776641E-1,-1.1002073E-2,-9.104757E-3,-1.6307996E-1,-1.1957315E-1,1.7820601E-1,1.8333783E-2,2.0210303E-1,-1.0119217E-3,-9.9200934E-2,3.0620422E-3,3.193134E-1,3.6672333E-1,9.0593785E-2],"split_indices":[3,1,12,1,3,1,0,2,2,1,2,0,0,3,0,11,5,0,2,0,1,3,3,3,2,0,0,0,0,3,3,10,3,9,0,0,0,0,0,0,0,0,0,0,0,0,0,0,0,0,0,0,0],"split_type":[0,0,0,0,0,0,0,0,0,0,0,0,0,0,0,0,0,0,0,0,0,0,0,0,0,0,0,0,0,0,0,0,0,0,0,0,0,0,0,0,0,0,0,0,0,0,0,0,0,0,0,0,0],"sum_hessian":[7.488107E3,7.4818745E3,6.23276E0,6.936505E3,5.453696E2,4.4850516E0,1.7477082E0,6.9292695E3,7.235135E0,2.4233682E2,3.0303284E2,2.4930136E0,1.9920381E0,6.758735E3,1.7053473E2,3.9946764E0,3.2404587E0,3.237735E0,2.3909909E2,2.9317792E2,9.854913E0,4.241351E3,2.5173838E3,1.2297865E2,4.755607E1,2.747333E0,1.2473434E0,1.745727E0,1.4947317E0,3.7451145E1,2.0164793E2,2.809678E2,1.2210119E1,7.6417847E0,2.213128E0,3.809809E3,4.3154184E2,3.873626E1,2.4786477E3,1.937407E0,1.2104125E2,1.57416725E1,3.1814398E1,1.6632875E0,3.5787857E1,1.8468442E2,1.6963514E1,2.2197108E2,5.8996723E1,5.9802465E0,6.2298727E0,4.924442E0,2.7173429E0],"tree_param":{"num_deleted":"0","num_feature":"19","num_nodes":"53","size_leaf_vector":"0"}},{"base_weights":[-3.6919644E-4,-6.553104E-3,5.9677284E-2,-5.9334286E-3,-6.9299537E-1,1.4182235E-1,-6.070409E-2,4.429681E-2,-1.3450091E-2,-9.1198766E-1,-1.1391615E-2,1.7744064E-1,-2.5814462E-1,-1.5335675E-1,1.5749888E-1,2.4228895E-2,6.054044E-1,6.875746E-3,-3.976697E-2,-1.1072922E0,-2.9923314E-1,1.3513927E-2,2.5181988E-1,-8.878215E-1,1.2903157E-1,-5.2106697E-2,-4.4908834E-1,8.7863725E-1,9.678991E-2,1.3007029E-2,8.1198215E-1,7.64444E-1,-1.7146654E-1,-6.6306636E-2,3.1083003E-2,1.9298916E-1,-5.7076294E-2,-5.8747206E-2,6.762039E-1,1.188256E0,2.2347039E-1,-4.8354283E-2,-1.3890277E0,-8.323289E-2,9.2735404E-1,-1.07218474E-1,4.1689223E-1,-6.150299E-1,-2.108346E-1,1.205511E0,2.5433362E-1,-9.282832E-3,4.9842656E-1,2.8456133E-3,5.8391744E-1,-3.354287E-1,1.1472087E0,9.5232403E-1,-6.173295E-3,6.84953E-1,-5.416134E-1,-4.382284E-2,-4.3932265E-1,9.998423E-1,2.6114218E-2,2.9540941E-2,3.4008467E-1,-2.3764205E-1,-3.974942E-2,-2.3361333E-1,1.0027311E-1,9.483328E-1,-1.7085074E-1,1.6270456E0,-1.223007E-2,2.9989138E-1,3.9250392E-2,8.1603616E-1,-8.966906E-1,-1.5306884E0,-5.491964E-1,3.0499592E-1,-5.266497E-1,-2.305156E-1,1.4052635E0,-2.6663078E-2,-4.4976178E-1,6.552612E-2,1.1773473E0,-1.027561E0,-4.0647417E-1,1.0396297E-1,-6.5538013E-1,-2.4843982E-1,6.439942E-1,-2.0478871E-1,3.004183E-1,9.9985677E-1,3.720165E-2],"categories":[],"categories_nodes":[],"categories_segments":[],"categories_sizes":[],"default_left":[1,1,1,1,1,1,1,1,1,1,0,1,1,1,1,1,1,1,1,0,0,1,1,1,1,1,1,1,1,1,1,1,1,1,1,1,1,1,1,1,1,1,1,1,1,1,1,1,1,0,1,1,1,0,0,0,0,0,0,0,0,0,0,0,0,0,0,0,0,0,0,0,0,0,0,0,0,0,0,0,0,0,0,0,0,0,0,0,0,0,0,0,0,0,0,0,0,0,0],"id":3,"left_children":[1,3,5,7,9,11,13,15,17,19,-1,21,23,25,27,29,31,33,35,-1,-1,37,39,41,43,45,47,49,51,53,55,57,59,61,63,65,67,69,71,73,75,77,79,81,83,85,87,89,91,-1,93,95,97,-1,-1,-1,-1,-1,-1,-1,-1,-1,-1,-1,-1,-1,-1,-1,-1,-1,-1,-1,-1,-1,-1,-1,-1,-1,-1,-1,-1,-1,-1,-1,-1,-1,-1,-1,-1,-1,-1,-1,-1,-1,-1,-1,-1,-1,-1],"loss_changes":[2.7798524E0,2.8830185E0,6.9208355E0,2.561309E0,9.020717E-1,5.9691277E0,5.77017E0,9.928619E0,3.1563425E0,2.208221E-1,0E0,4.6588287E0,8.50272E0,5.9654665E0,3.6452308E0,7.535252E0,3.8932295E0,5.90105E0,1.0370411E1,0E0,0E0,5.805437E0,6.7157764E0,5.498249E0,3.835542E0,3.9251325E0,1.8819818E0,1.0182672E0,3.400639E0,4.8865952E0,4.9900203E0,3.6918602E0,2.270168E0,6.924958E0,1.2021574E1,4.274608E0,7.4808025E0,3.0679045E0,2.9092383E0,3.9683285E0,3.5990086E0,5.117649E0,1.404314E-1,3.3347025E0,2.9473214E0,3.7169595E0,4.195634E0,2.1178331E0,3.2043447E0,0E0,8.4538245E-1,3.9391131E0,3.8186588E0,0E0,0E0,0E0,0E0,0E0,0E0,0E0,0E0,0E0,0E0,0E0,0E0,0E0,0E0,0E0,0E0,0E0,0E0,0E0,0E0,0E0,0E0,0E0,0E0,0E0,0E0,0E0,0E0,0E0,0E0,0E0,0E0,0E0,0E0,0E0,0E0,0E0,0E0,0E0,0E0,0E0,0E0,0E0,0E0,0E0,0E0],"parents":[2147483647,0,0,1,1,2,2,3,3,4,4,5,5,6,6,7,7,8,8,9,9,11,11,12,12,13,13,14,14,15,15,16,16,17,17,18,18,21,21,22,22,23,23,24,24,25,25,26,26,27,27,28,28,29,29,30,30,31,31,32,32,33,33,34,34,35,35,36,36,37,37,38,38,39,39,40,40,41,41,42,42,43,43,44,44,45,45,46,46,47,47,48,48,50,50,51,51,52,52],"right_children":[2,4,6,8,10,12,14,16,18,20,-1,22,24,26,28,30,32,34,36,-1,-1,38,40,42,44,46,48,50,52,54,56,58,60,62,64,66,68,70,72,74,76,78,80,82,84,86,88,90,92,-1,94,96,98,-1,-1,-1,-1,-1,-1,-1,-1,-1,-1,-1,-1,-1,-1,-1,-1,-1,-1,-1,-1,-1,-1,-1,-1,-1,-1,-1,-1,-1,-1,-1,-1,-1,-1,-1,-1,-1,-1,-1,-1,-1,-1,-1,-1,-1,-1],"split_conditions":[6.55E1,2.35908E3,6.85E1,3.9175E1,5E-1,1.70796E3,1.0928501E3,8.42875E2,4.45E1,9.932E1,-3.4174845E-3,4.525E2,8.7515E1,8.07065E2,1.149825E3,3.9075E1,5E-1,4.1516E2,1.38905E2,-3.3218765E-1,-8.9769945E-2,9.1274994E1,4.67075E2,2.725E2,5E-1,7.3825E2,3.36E2,5E-1,5E-1,6.45E1,1.385E2,3.795E2,2.08E2,3.9382E2,4.2044E2,2.605E2,4.4885002E1,2.775E2,3.705E2,5E-1,1.142E3,8.3565E1,5E-1,9.3525E1,1.865665E3,5.8665E2,7.3729996E1,4.7425E1,4.46E2,3.616533E-1,7.2494995E1,5E-1,7.8990005E1,8.5368403E-4,1.7517523E-1,-1.0062862E-1,3.441626E-1,2.8569722E-1,-1.8519886E-3,2.054859E-1,-1.6248402E-1,-1.3146852E-2,-1.317968E-1,2.999527E-1,7.834266E-3,8.862283E-3,1.02025405E-1,-7.129262E-2,-1.1924827E-2,-7.0084E-2,3.0081933E-2,2.8449985E-1,-5.1255222E-2,4.881137E-1,-3.6690212E-3,8.9967415E-2,1.1775118E-2,2.4481086E-1,-2.690072E-1,-4.5920655E-1,-1.6475894E-1,9.149878E-2,-1.5799493E-1,-6.915468E-2,4.215791E-1,-7.998924E-3,-1.3492854E-1,1.9657837E-2,3.532042E-1,-3.082683E-1,-1.2194226E-1,3.1188892E-2,-1.9661404E-1,-7.453195E-2,1.9319828E-1,-6.1436616E-2,9.0125486E-2,2.9995704E-1,1.1160496E-2],"split_indices":[0,3,0,1,12,3,3,3,0,1,0,3,1,3,3,1,13,3,3,0,0,1,3,2,12,3,2,16,10,0,2,2,2,3,3,2,1,2,3,13,3,1,12,1,3,3,1,1,2,0,1,16,1,0,0,0,0,0,0,0,0,0,0,0,0,0,0,0,0,0,0,0,0,0,0,0,0,0,0,0,0,0,0,0,0,0,0,0,0,0,0,0,0,0,0,0,0,0,0],"split_type":[0,0,0,0,0,0,0,0,0,0,0,0,0,0,0,0,0,0,0,0,0,0,0,0,0,0,0,0,0,0,0,0,0,0,0,0,0,0,0,0,0,0,0,0,0,0,0,0,0,0,0,0,0,0,0,0,0,0,0,0,0,0,0,0,0,0,0,0,0,0,0,0,0,0,0,0,0,0,0,0,0,0,0,0,0,0,0,0,0,0,0,0,0,0,0,0,0,0,0],"sum_hessian":[7.4843145E3,6.7863145E3,6.9800006E2,6.781201E3,5.1129866E0,4.147842E2,2.8321588E2,8.8204254E2,5.8991587E3,3.6138809E0,1.4991056E0,3.813777E2,3.3406498E1,1.9901004E2,8.420583E1,8.525929E2,2.9449654E1,3.3288562E3,2.5703027E3,2.1284142E0,1.4854667E0,1.1940312E2,2.6197458E2,1.2227486E1,2.1179014E1,1.491288E2,4.9881245E1,5.492275E0,7.8713554E1,8.416202E2,1.0972711E1,2.4458542E1,4.991112E0,8.269912E2,2.501865E3,1.7721169E2,2.393091E3,1.0848503E2,1.091809E1,6.4956813E0,2.554789E2,4.981118E0,7.2463675E0,1.7438156E1,3.740858E0,1.3413774E2,1.49910555E1,2.8470438E1,2.1410807E1,2.9938054E0,2.4984696E0,6.3041187E1,1.567237E1,8.278899E2,1.373031E1,2.48081E0,8.491901E0,1.9474722E1,4.9838204E0,1.2495357E0,3.7415767E0,7.810315E2,4.5959732E1,1.174492E1,2.49012E3,8.4508804E1,9.270288E1,2.0841844E2,2.1846726E3,5.144483E1,5.7040203E1,8.17287E0,2.7452204E0,4.496752E0,1.9989299E0,1.8012766E2,7.5351234E1,2.4860728E0,2.4950452E0,5.4966006E0,1.7497668E0,9.464118E0,7.974038E0,1.2441688E0,2.496689E0,1.0947137E2,2.466638E1,1.0996378E1,3.994678E0,8.241469E0,2.0228968E1,1.2983144E1,8.427662E0,1.249141E0,1.2493286E0,3.885306E1,2.4188124E1,6.949379E0,8.722991E0],"tree_param":{"num_deleted":"0","num_feature":"19","num_nodes":"99","size_leaf_vector":"0"}},{"base_weights":[-5.4470835E-5,-9.22645E-3,3.6786377E-2,2.0023827E-1,-1.2029459E-2,4.0099822E-2,-1.2103415E0,-1.5225533E-1,3.5696444E-1,-2.1525992E-2,4.733127E-2,4.3979764E-2,-5.228899E-1,-7.3277426E-1,2.5873628E-1,5.404706E-1,-6.116252E-2,-1.9494286E-2,-3.890519E-1,-3.822827E-1,6.31126E-2,2.9695509E-2,1.8204993E-1,-1.5711394E-1,-9.2465854E-1,2.4360932E-1,-9.7992516E-1,1.1139642E0,-1.1110314E-1,3.0526415E-1,9.671111E-1,8.1974536E-1,-3.4857634E-1,-1.4968078E-2,-1.3361438E-1,-6.0501784E-1,2.8207195E-1,-6.0911137E-1,-4.1362274E-2,-6.4457166E-1,7.001526E-2,1.6072215E-1,7.070625E-3,2.896259E-3,3.6718366E-1,7.301195E-1,-7.019709E-1,-1.5495849E-1,-1.1532077E0,-1.3672003E0,-4.1497934E-1,1.3405391E0,3.7339067E-1,2.0816931E-1,-9.228565E-1,9.931592E-2,9.209634E-1,1.3555588E0,4.8818982E-1,1.1027879E0,3.9359435E-1,-5.5870444E-1,2.7164054E-1,-3.4068976E-2,2.744601E-2,3.9838085E-1,-1.7651889E-1,-9.1193974E-1,5.7952214E-2,7.6014096E-1,-6.8870026E-1,-8.215861E-1,2.4760546E-1,6.4833707E-1,-5.320445E-1,2.562765E-1,-8.551756E-1,5.014896E-1,5.433071E-2,2.9084507E-1,-1.5368937E-1,-3.6067477E-1,2.4528725E-2,1.03942856E-1,-5.3442883E-1,1.3145039E0,2.4220976E-1,4.1452467E-2,-1.1421515E0],"categories":[],"categories_nodes":[],"categories_segments":[],"categories_sizes":[],"default_left":[1,1,1,1,1,1,0,1,1,1,1,1,1,1,1,1,1,1,1,1,1,1,1,1,1,0,1,1,1,1,1,1,1,1,1,1,1,1,1,1,1,1,1,1,1,0,1,0,0,0,0,0,0,0,0,0,0,0,0,0,0,0,0,0,0,0,0,0,0,0,0,0,0,0,0,0,0,0,0,0,0,0,0,0,0,0,0,0,0],"id":4,"left_children":[1,3,5,7,9,11,-1,13,15,17,19,21,23,25,27,29,31,33,35,37,39,41,43,45,47,-1,49,51,53,55,57,59,61,63,65,67,69,71,73,75,77,79,81,83,85,-1,87,-1,-1,-1,-1,-1,-1,-1,-1,-1,-1,-1,-1,-1,-1,-1,-1,-1,-1,-1,-1,-1,-1,-1,-1,-1,-1,-1,-1,-1,-1,-1,-1,-1,-1,-1,-1,-1,-1,-1,-1,-1,-1],"loss_changes":[2.5279474E0,3.519317E0,6.2109365E0,4.4272537E0,3.333642E0,3.2739859E0,0E0,6.1693454E0,4.260186E0,3.798502E0,5.554134E0,2.9115875E0,1.3631287E0,2.8086762E0,4.9989104E0,3.557129E0,4.7676435E0,2.6169226E0,4.224606E0,2.2206354E0,3.8925192E0,3.9758644E0,4.591772E0,3.6921773E0,6.457691E-1,0E0,1.3356056E0,2.9544783E-1,3.2164645E0,3.2317696E0,1.7904902E0,1.2720871E-1,1.9826896E0,3.9527624E0,4.482303E0,4.423283E0,4.000243E0,3.3646073E0,4.6347203E0,1.6811612E0,5.257492E0,8.124679E0,7.3603063E0,3.9312134E0,7.743129E0,0E0,1.5476847E0,0E0,0E0,0E0,0E0,0E0,0E0,0E0,0E0,0E0,0E0,0E0,0E0,0E0,0E0,0E0,0E0,0E0,0E0,0E0,0E0,0E0,0E0,0E0,0E0,0E0,0E0,0E0,0E0,0E0,0E0,0E0,0E0,0E0,0E0,0E0,0E0,0E0,0E0,0E0,0E0,0E0,0E0],"parents":[2147483647,0,0,1,1,2,2,3,3,4,4,5,5,7,7,8,8,9,9,10,10,11,11,12,12,13,13,14,14,15,15,16,16,17,17,18,18,19,19,20,20,21,21,22,22,23,23,24,24,26,26,27,27,28,28,29,29,30,30,31,31,32,32,33,33,34,34,35,35,36,36,37,37,38,38,39,39,40,40,41,41,42,42,43,43,44,44,46,46],"right_children":[2,4,6,8,10,12,-1,14,16,18,20,22,24,26,28,30,32,34,36,38,40,42,44,46,48,-1,50,52,54,56,58,60,62,64,66,68,70,72,74,76,78,80,82,84,86,-1,88,-1,-1,-1,-1,-1,-1,-1,-1,-1,-1,-1,-1,-1,-1,-1,-1,-1,-1,-1,-1,-1,-1,-1,-1,-1,-1,-1,-1,-1,-1,-1,-1,-1,-1,-1,-1,-1,-1,-1,-1,-1,-1],"split_conditions":[5E-1,5.55E1,9.9915E1,5.15E1,9.0265E1,4.975E2,-3.6310244E-1,6.2753503E2,5.55E1,8.9994995E1,1.95E1,6.55E1,5E-1,2.65E1,9.364E2,4.25E1,3.6553998E2,6.85E1,5E-1,1.4798401E3,9.144E1,1.145E2,2.845E2,4.25E1,4.759E2,7.30828E-2,4.45E1,5.729E1,5E-1,5E-1,5E-1,5.25E1,1.1311951E3,5.25E1,3.4230003E1,5.05E1,1.487335E3,9.733E1,1.85179E3,9.0615E1,9.853E1,5.05E1,1.315E2,1.38056E3,3.1E2,2.1903586E-1,4.284E2,-4.6487547E-2,-3.4596232E-1,-4.101601E-1,-1.2449381E-1,4.0216175E-1,1.1201721E-1,6.2450796E-2,-2.7685696E-1,2.9794777E-2,2.7628905E-1,4.0666765E-1,1.4645696E-1,3.3083636E-1,1.18078314E-1,-1.6761133E-1,8.149216E-2,-1.0220693E-2,8.233803E-3,1.1951426E-1,-5.295567E-2,-2.7358192E-1,1.7385665E-2,2.2804229E-1,-2.0661008E-1,-2.4647583E-1,7.428164E-2,1.9450113E-1,-1.5961334E-1,7.688295E-2,-2.565527E-1,1.5044688E-1,1.6299214E-2,8.7253526E-2,-4.610681E-2,-1.08202435E-1,7.3586176E-3,3.1182857E-2,-1.6032866E-1,3.9435118E-1,7.2662935E-2,1.2435741E-2,-3.4264547E-1],"split_indices":[13,2,1,2,1,2,0,3,0,1,0,0,15,0,3,0,3,0,12,3,3,2,2,0,3,0,0,1,12,17,7,2,3,0,1,0,3,1,3,1,3,0,2,3,2,0,3,0,0,0,0,0,0,0,0,0,0,0,0,0,0,0,0,0,0,0,0,0,0,0,0,0,0,0,0,0,0,0,0,0,0,0,0,0,0,0,0,0,0],"split_type":[0,0,0,0,0,0,0,0,0,0,0,0,0,0,0,0,0,0,0,0,0,0,0,0,0,0,0,0,0,0,0,0,0,0,0,0,0,0,0,0,0,0,0,0,0,0,0,0,0,0,0,0,0,0,0,0,0,0,0,0,0,0,0,0,0,0,0,0,0,0,0,0,0,0,0,0,0,0,0,0,0,0,0,0,0,0,0,0,0],"sum_hessian":[7.4792656E3,5.9889844E3,1.4902811E3,7.81548E1,5.9108296E3,1.4872975E3,2.9836931E0,2.4063034E1,5.4091763E1,5.0961797E3,8.146498E2,1.4780332E3,9.264243E0,9.649844E0,1.441319E1,3.7389698E1,1.6702066E1,5.06921E3,2.6969852E1,2.8041956E1,7.8660785E2,1.3405588E3,1.3747444E2,5.5774803E0,3.6867633E0,1.9521387E0,7.6977053E0,3.7438278E0,1.0669362E1,2.5208038E1,1.2181659E1,3.653166E0,1.3048901E1,4.876914E3,1.9229604E2,2.0478443E1,6.49141E0,1.6366182E1,1.1675774E1,6.705999E0,7.7990186E2,1.9649586E2,1.1440629E3,7.038175E1,6.709269E1,1.9926579E0,3.5848222E0,1.2282646E0,2.4584987E0,3.7244847E0,3.9732208E0,2.246412E0,1.4974157E0,8.191214E0,2.478148E0,1.9759794E1,5.4482436E0,5.715467E0,6.466192E0,1.2410768E0,2.4120893E0,9.820811E0,3.2280903E0,3.3627288E3,1.5141853E3,1.3732642E1,1.785634E2,1.3741351E1,6.737092E0,4.494841E0,1.9965684E0,1.3146675E1,3.2195065E0,4.7200327E0,6.955741E0,1.2295964E0,5.4764023E0,2.6269423E1,7.536324E2,1.3903114E2,5.746473E1,5.095994E1,1.093103E3,5.992005E1,1.0461702E1,6.7101965E0,6.0382496E1,1.6700666E0,1.9147557E0],"tree_param":{"num_deleted":"0","num_feature":"19","num_nodes":"89","size_leaf_vector":"0"}},{"base_weights":[-1.1055621E-5,-3.1577487E-4,8.417126E-1,3.5952168E-4,-1.2162381E0,-1.2499865E-3,2.6965865E-1,-4.3857173E-5,-7.991349E-1,-1.9649799E-1,5.306788E-1,-1.3697888E-3,3.1769273E-1,4.8679683E-1,-1.0877186E0,6.256129E-1,-4.0262765E-1,1.1913182E0,3.151868E-1,-1.5088478E-4,-6.5689903E-1,-8.225073E-1,4.360319E-1,-1.237616E0,-3.5001275E-1,1.124341E0,-2.0412165E-1,-1.0090576E0,1.1065591E-1,1.3704209E0,2.1639948E-1,6.48732E-1,-5.461498E-1],"categories":[],"categories_nodes":[],"categories_segments":[],"categories_sizes":[],"default_left":[1,1,0,1,0,1,1,1,1,1,1,1,1,0,1,1,1,1,1,0,0,0,0,0,0,0,0,0,0,0,0,0,0],"id":5,"left_children":[1,3,-1,5,-1,7,9,11,13,15,17,19,21,-1,23,25,27,29,31,-1,-1,-1,-1,-1,-1,-1,-1,-1,-1,-1,-1,-1,-1],"loss_changes":[1.9178476E0,6.1378555E0,0E0,3.2387369E0,0E0,7.1483307E0,5.5058928E0,3.1255324E0,4.690117E0,3.0759254E0,3.7143831E0,5.9030905E0,4.518614E0,0E0,6.135559E-1,1.7739843E0,4.4484177E0,8.744316E-1,6.968483E0,0E0,0E0,0E0,0E0,0E0,0E0,0E0,0E0,0E0,0E0,0E0,0E0,0E0,0E0],"parents":[2147483647,0,0,1,1,3,3,5,5,6,6,7,7,8,8,9,9,10,10,11,11,12,12,14,14,15,15,16,16,17,17,18,18],"right_children":[2,4,-1,6,-1,8,10,12,14,16,18,20,22,-1,24,26,28,30,32,-1,-1,-1,-1,-1,-1,-1,-1,-1,-1,-1,-1,-1,-1],"split_conditions":[5.329294E-1,5.293062E-1,2.525138E-1,5.125743E-1,-3.6487144E-1,5.1076466E-1,2.85E1,5.0601643E-1,3.49E2,1.95E1,5.1441675E-1,5.0345445E-1,2.94E2,1.4603905E-1,7.439E1,4.295E2,4.095E2,5.55E1,5.443E1,-4.5265435E-5,-1.9706972E-1,-2.467522E-1,1.3080958E-1,-3.7128478E-1,-1.0500383E-1,3.3730233E-1,-6.1236497E-2,-3.027173E-1,3.3196773E-2,4.111263E-1,6.4919844E-2,1.9461961E-1,-1.6384494E-1],"split_indices":[18,18,0,18,0,18,0,18,2,0,18,18,2,0,1,2,2,0,1,0,0,0,0,0,0,0,0,0,0,0,0,0,0],"split_type":[0,0,0,0,0,0,0,0,0,0,0,0,0,0,0,0,0,0,0,0,0,0,0,0,0,0,0,0,0,0,0,0,0],"sum_hessian":[7.4752617E3,7.4735557E3,1.705938E0,7.4704062E3,3.1491954E0,7.427013E3,4.339334E1,7.4168013E3,1.0211614E1,1.5664772E1,2.7728569E1,7.3869707E3,2.9830532E1,1.7457389E0,8.465875E0,2.7323282E0,1.2932444E1,5.7062883E0,2.2022282E1,7.3742593E3,1.2711613E1,2.2454228E0,2.758511E1,6.4729548E0,1.9929202E0,1.4847994E0,1.2475288E0,5.485543E0,7.4469013E0,4.4779625E0,1.2283256E0,1.6052803E1,5.969478E0],"tree_param":{"num_deleted":"0","num_feature":"19","num_nodes":"33","size_leaf_vector":"0"}},{"base_weights":[-3.483858E-5,4.148205E-4,-4.8892996E-1,2.1916035E-6,6.864103E-1,-7.239032E-1,1.295895E-1,6.966157E-4,-5.0786424E-1,1.0278045E0,3.6217232E-4,-1.0272601E0,-1.5164262E-1,3.2241234E-5,9.9726266E-1,-9.059217E-1,1.7224259E-3,5.3544814E-4,-8.371378E-1,1.236561E0,1.4965132E-1,5.2394908E-2,-1.2563889E0,5.109899E-1,-3.722599E-1,2.1367339E-6,1.0003413E0,-1.4168358E-1,-1.2253205E0,-7.6307595E-1,2.2933401E-1],"categories":[],"categories_nodes":[],"categories_segments":[],"categories_sizes":[],"default_left":[1,1,1,1,1,1,0,1,1,0,0,0,0,1,1,1,1,1,1,0,0,0,0,0,1,0,0,0,0,0,0],"id":6,"left_children":[1,3,5,7,9,11,-1,13,15,-1,-1,-1,-1,17,19,21,23,25,27,-1,-1,-1,-1,-1,29,-1,-1,-1,-1,-1,-1],"loss_changes":[1.6434499E0,2.114186E0,1.0921941E0,2.6332517E0,1.0512269E0,7.348075E-1,0E0,4.9367447E0,2.069623E0,0E0,0E0,0E0,0E0,3.1398985E0,8.225174E-1,1.9889326E0,1.2319E0,3.9717953E0,1.0351295E0,0E0,0E0,0E0,0E0,0E0,1.052458E0,0E0,0E0,0E0,0E0,0E0,0E0],"parents":[2147483647,0,0,1,1,2,2,3,3,4,4,5,5,7,7,8,8,13,13,14,14,15,15,16,16,17,17,18,18,24,24],"right_children":[2,4,6,8,10,12,-1,14,16,-1,-1,-1,-1,18,20,22,24,26,28,-1,-1,-1,-1,-1,30,-1,-1,-1,-1,-1,-1],"split_conditions":[2.35908E3,2.3346E3,5E-1,2.2872E3,5E-1,9.932E1,3.887685E-2,2.2746E3,2.3026802E3,3.0834135E-1,1.086517E-4,-3.0817804E-1,-4.5492787E-2,2.26825E3,3.69E2,2.85E1,2.93E2,2.2614448E3,5E-1,3.7096828E-1,4.4895396E-2,1.5718473E-2,-3.7691668E-1,1.5329698E-1,4.36E2,6.4102016E-7,3.001024E-1,-4.2505074E-2,-3.6759615E-1,-2.289228E-1,6.88002E-2],"split_indices":[3,3,12,3,5,1,0,3,3,0,0,0,0,3,2,0,2,3,7,0,0,0,0,0,2,0,0,0,0,0,0],"split_type":[0,0,0,0,0,0,0,0,0,0,0,0,0,0,0,0,0,0,0,0,0,0,0,0,0,0,0,0,0,0,0],"sum_hessian":[7.473873E3,7.4680034E3,5.8695107E0,7.464513E3,3.48993E0,4.130115E0,1.7393956E0,7.455318E3,9.195297E0,1.9976828E0,1.4922472E0,2.1796076E0,1.9505076E0,7.4513506E3,3.9675133E0,4.725934E0,4.4693637E0,7.447873E3,3.477414E0,2.7361608E0,1.2313524E0,1.4932623E0,3.2326717E0,1.7372837E0,2.73208E0,7.444902E3,2.9712205E0,1.7346567E0,1.7427571E0,1.493456E0,1.2386239E0],"tree_param":{"num_deleted":"0","num_feature":"19","num_nodes":"31","size_leaf_vector":"0"}},{"base_weights":[-4.0920288E-5,-6.553369E-2,3.3012426E-3,-2.1781841E-2,-4.756098E-1,3.3512613E-1,1.250684E-3,1.670688E-2,-5.055792E-1,-1.2592813E0,-3.1860948E-1,1.4850883E-1,9.5178205E-1,-1.0885445E0,2.2516204E-3,3.1560473E-2,-1.1889384E0,6.0454774E-1,-6.299278E-1,4.4360548E-1,-4.33979E-1,3.3137038E-1,-4.5637888E-1,-4.194523E-1,1.2417935E0,-1.2533746E0,-2.2037996E-1,7.721484E-1,1.6246046E-3,-1.6115053E-2,3.1107497E-1,-7.287836E-1,5.804535E-1,-3.4619805E-1,1.2136796E0,-6.2004554E-1,6.4001046E-2,1.8327172E-1,1.2106837E0,1.15253136E-1,-1.0535474E0,1.3938543E0,1.9913417E-1,-2.6812783E-1,-1.4924766E0,1.4946941E0,-5.604228E-1,2.6077193E-3,-3.529059E-1,2.355372E-2,-5.212685E-1,-1.5718049E-1,5.388017E-1,-9.393433E-1,4.7755897E-2,-3.6620948E-1,-1.345374E0,-8.9078856E-1,4.5878157E-1,5.164013E-1,-9.2570975E-2,4.939478E-1,-6.120769E-1,-1.3411387E0,-2.0075184E-1,4.8852724E-1,1.5924414E0,-5.62053E-1,3.2275214E-3,9.322968E-1,-5.3068066E-1],"categories":[],"categories_nodes":[],"categories_segments":[],"categories_sizes":[],"default_left":[1,1,1,1,1,1,1,1,1,0,1,1,1,1,1,1,0,0,1,1,1,1,1,0,1,1,0,1,1,1,1,1,0,0,0,1,1,1,0,1,1,1,0,0,0,0,0,1,1,0,0,0,0,0,0,0,0,0,0,0,0,0,0,0,0,0,0,0,0,0,0],"id":7,"left_children":[1,3,5,7,9,11,13,15,17,-1,19,21,23,25,27,29,-1,-1,31,33,35,37,39,-1,41,43,-1,45,47,49,51,53,-1,-1,-1,55,57,59,-1,61,63,65,-1,-1,-1,-1,-1,67,69,-1,-1,-1,-1,-1,-1,-1,-1,-1,-1,-1,-1,-1,-1,-1,-1,-1,-1,-1,-1,-1,-1],"loss_changes":[1.6362145E0,6.5014076E0,4.838915E0,6.1346827E0,3.8979201E0,4.884966E0,7.714006E0,5.512474E0,3.7320814E0,0E0,2.8700688E0,3.991076E0,4.482601E0,6.523838E-1,3.4088233E0,4.042487E0,0E0,0E0,3.0938368E0,3.1555166E0,2.5369272E0,3.3249087E0,3.0158536E0,0E0,1.0662203E0,8.343344E-1,0E0,6.370426E0,2.4613962E0,5.217972E0,4.7975693E0,3.491479E0,0E0,0E0,0E0,3.1369305E0,3.5136344E0,2.2980635E0,0E0,1.743847E0,7.7200794E-1,5.219326E-1,0E0,0E0,0E0,0E0,0E0,2.4659276E0,4.956595E0,0E0,0E0,0E0,0E0,0E0,0E0,0E0,0E0,0E0,0E0,0E0,0E0,0E0,0E0,0E0,0E0,0E0,0E0,0E0,0E0,0E0,0E0],"parents":[2147483647,0,0,1,1,2,2,3,3,4,4,5,5,6,6,7,7,8,8,10,10,11,11,12,12,13,13,14,14,15,15,18,18,19,19,20,20,21,21,22,22,24,24,25,25,27,27,28,28,29,29,30,30,31,31,35,35,36,36,37,37,39,39,40,40,41,41,47,47,48,48],"right_children":[2,4,6,8,10,12,14,16,18,-1,20,22,24,26,28,30,-1,-1,32,34,36,38,40,-1,42,44,-1,46,48,50,52,54,-1,-1,-1,56,58,60,-1,62,64,66,-1,-1,-1,-1,-1,68,70,-1,-1,-1,-1,-1,-1,-1,-1,-1,-1,-1,-1,-1,-1,-1,-1,-1,-1,-1,-1,-1,-1],"split_conditions":[3.3415E1,3.3125E1,3.3775E1,4.685E2,3.3175E1,6.25E1,3.3835E1,7.7880005E2,7.9015E1,-3.777844E-1,1.085E2,5E-1,1.005E2,6E1,3.3885002E1,3.2665E1,-3.5668153E-1,1.8136433E-1,4.995E2,8.95E1,5E-1,3.3725E1,4.4E1,-1.258357E-1,3.3655E1,3.3795E1,-6.611399E-2,5.75E1,4.995E2,3.2465E1,3.3025E2,6.6528E2,1.7413606E-1,-1.0385942E-1,3.6410388E-1,3.3355E1,2.6E1,2.4E2,3.6320513E-1,3.835E2,2.84E2,3.348E1,5.9740253E-2,-8.043835E-2,-4.47743E-1,4.4840825E-1,-1.6812684E-1,3.3934998E1,2.2E1,7.066116E-3,-1.5638055E-1,-4.7154147E-2,1.6164052E-1,-2.8180298E-1,1.432677E-2,-1.0986285E-1,-4.0361223E-1,-2.672366E-1,1.3763447E-1,1.549204E-1,-2.7771294E-2,1.4818434E-1,-1.8362308E-1,-4.0234163E-1,-6.0225554E-2,1.4655818E-1,4.7773245E-1,-1.686159E-1,9.6825644E-4,2.7968904E-1,-1.592042E-1],"split_indices":[1,1,1,2,1,0,1,3,3,0,2,13,2,0,1,1,0,0,2,2,9,1,0,0,1,1,0,0,2,1,3,3,0,0,0,1,0,2,0,2,2,1,0,0,0,0,0,1,0,0,0,0,0,0,0,0,0,0,0,0,0,0,0,0,0,0,0,0,0,0,0],"split_type":[0,0,0,0,0,0,0,0,0,0,0,0,0,0,0,0,0,0,0,0,0,0,0,0,0,0,0,0,0,0,0,0,0,0,0,0,0,0,0,0,0,0,0,0,0,0,0,0,0,0,0,0,0,0,0,0,0,0,0,0,0,0,0,0,0,0,0,0,0,0,0],"sum_hessian":[7.473151E3,3.619426E2,7.111208E3,3.2800067E2,3.3941936E1,4.2677208E1,7.068531E3,3.047237E2,2.3276968E1,4.4931874E0,2.944875E1,3.371495E1,8.962256E0,5.4892077E0,7.0630415E3,3.0197714E2,2.7465467E0,1.955697E0,2.132127E1,3.497387E0,2.5951363E1,2.6235857E1,7.4790945E0,1.4866652E0,7.4755917E0,4.2404146E0,1.2487935E0,4.7462754E0,7.0582954E3,2.587805E2,4.319667E1,2.0079224E1,1.2420468E0,1.9983125E0,1.4990745E0,1.8713923E1,7.237439E0,2.3488264E1,2.7475934E0,4.2335668E0,3.2455277E0,6.2301626E0,1.2454289E0,1.2423921E0,2.9980223E0,2.9986744E0,1.747601E0,7.0397666E3,1.852866E1,2.4082251E2,1.7957975E1,1.4235398E1,2.8961273E1,1.5631162E1,4.448062E0,1.4977339E1,3.736584E0,1.7495883E0,5.4878507E0,1.0244322E1,1.3243943E1,2.995035E0,1.2385321E0,1.9988202E0,1.2467077E0,1.7432016E0,4.4869614E0,6.725563E0,7.033041E3,1.7357796E0,1.6792881E1],"tree_param":{"num_deleted":"0","num_feature":"19","num_nodes":"71","size_leaf_vector":"0"}},{"base_weights":[-1.6062139E-4,7.174926E-3,-2.9647205E-2,1.5414308E-1,4.49869E-3,3.1006318E-1,-4.358391E-2,3.1366137E-1,-3.4642115E-1,-5.035995E-3,5.02225E-2,-2.0061384E-1,6.151892E-1,-4.8981634E-1,-3.630178E-2,3.7548476E-1,-5.401888E-1,5.3520954E-1,-6.2836903E-1,3.0970844E-4,-3.530462E-1,4.402563E-2,5.2408344E-1,-8.865142E-1,2.6143769E-2,3.3072385E-1,1.0635706E0,-1.4424934E-2,-1.0049596E0,1.5861732E-1,-5.6045443E-2,2.814306E-1,1.3201685E0,-2.207559E-1,-9.731564E-1,1.0576084E0,-2.8549567E-1,6.844426E-1,-7.497158E-1,-4.574629E-3,1.5796877E-1,6.0472168E-2,-5.832937E-1,-1.3429013E-1,5.8892485E-2,7.8430945E-1,-6.443458E-1,-1.0761589E0,-1.0993903E-1,2.8362072E-1,-1.1322109E0,8.402153E-1,7.6354355E-2,1.2456832E0,-1.652636E-2,-6.5501595E-1,5.0591177E-1,4.0976787E-1,-1.2721956E0,1.8645453E-1,-9.074751E-1,-1.0696489E0,-5.243094E-2,4.7826862E-1,-1.7389543E-1,1.8737254E-1,1.5445836E0,-7.766418E-1,2.818444E-1,-9.7747153E-1,-7.902384E-2,-3.368723E-3,-7.535418E-1,3.3455834E-1,-1.8321033E-1,5.7970726E-1,-5.117455E-1,5.23368E-1,-6.562602E-1,2.4633288E-1,-3.6234316E-1,5.2127457E-1,4.5717116E-2,1.3087726E0,4.3693647E-2,-3.9491946E-1,-1.2772424E0,-3.6447296E-1,4.3373618E-1,1.0354939E0,8.0106854E-2,-2.9848534E-1,7.4223477E-1,1.3600056E0,1.4508328E-1,-1.3817132E0,5.943418E-1,7.753127E-1,-2.693202E-1,-1.3998283E0,-2.3984312E-1,2.2421229E-1,-5.873606E-1,-2.8209755E-1,-1.1247073E0,-1.2998041E0,-3.6535433E-1,-4.9756166E-2,-1.2742237E0],"categories":[],"categories_nodes":[],"categories_segments":[],"categories_sizes":[],"default_left":[1,1,1,1,1,1,1,1,1,1,1,1,1,1,1,1,1,1,1,1,1,1,1,1,1,1,1,1,1,1,1,1,1,1,0,0,0,0,1,1,1,1,1,1,1,1,0,1,0,1,0,1,1,1,0,1,1,0,1,1,1,1,1,0,0,0,0,0,0,0,0,0,0,0,0,0,0,0,0,0,0,0,0,0,0,0,0,0,0,0,0,0,0,0,0,0,0,0,0,0,0,0,0,0,0,0,0,0,0],"id":8,"left_children":[1,3,5,7,9,11,13,15,17,19,21,23,25,27,29,31,33,35,37,39,41,43,45,47,49,51,53,55,57,59,61,63,65,67,-1,-1,-1,-1,69,71,73,75,77,79,81,83,-1,85,-1,87,-1,89,91,93,-1,95,97,-1,99,101,103,105,107,-1,-1,-1,-1,-1,-1,-1,-1,-1,-1,-1,-1,-1,-1,-1,-1,-1,-1,-1,-1,-1,-1,-1,-1,-1,-1,-1,-1,-1,-1,-1,-1,-1,-1,-1,-1,-1,-1,-1,-1,-1,-1,-1,-1,-1,-1],"loss_changes":[1.6162307E0,2.3527887E0,7.0610704E0,8.650972E0,2.5626762E0,9.283442E0,4.63159E0,4.513073E0,6.880904E0,9.049586E0,2.9552493E0,3.560162E0,4.37325E0,5.5921803E0,5.430891E0,6.4459543E0,6.0433865E-1,3.2686777E0,3.7643757E0,3.6906805E0,7.041979E0,2.664886E0,4.458374E0,7.180314E-1,5.708161E0,3.0613186E0,2.7602367E0,4.638272E0,4.6698856E0,4.022598E0,4.633589E0,6.451282E0,1.4078941E0,1.5325081E0,0E0,0E0,0E0,0E0,2.8494072E0,4.196148E0,8.738213E0,8.386044E0,4.1681175E0,6.81088E0,5.6163216E0,4.248071E0,0E0,1.0524225E-1,0E0,1.6735698E0,0E0,1.0942626E0,4.5110245E0,1.3039627E0,0E0,6.4748287E0,1.8156787E0,0E0,9.1248417E-1,3.8531199E0,1.5475345E-1,2.540412E-1,4.1083922E0,0E0,0E0,0E0,0E0,0E0,0E0,0E0,0E0,0E0,0E0,0E0,0E0,0E0,0E0,0E0,0E0,0E0,0E0,0E0,0E0,0E0,0E0,0E0,0E0,0E0,0E0,0E0,0E0,0E0,0E0,0E0,0E0,0E0,0E0,0E0,0E0,0E0,0E0,0E0,0E0,0E0,0E0,0E0,0E0,0E0,0E0],"parents":[2147483647,0,0,1,1,2,2,3,3,4,4,5,5,6,6,7,7,8,8,9,9,10,10,11,11,12,12,13,13,14,14,15,15,16,16,17,17,18,18,19,19,20,20,21,21,22,22,23,23,24,24,25,25,26,26,27,27,28,28,29,29,30,30,31,31,32,32,33,33,38,38,39,39,40,40,41,41,42,42,43,43,44,44,45,45,47,47,49,49,51,51,52,52,53,53,55,55,56,56,58,58,59,59,60,60,61,61,62,62],"right_children":[2,4,6,8,10,12,14,16,18,20,22,24,26,28,30,32,34,36,38,40,42,44,46,48,50,52,54,56,58,60,62,64,66,68,-1,-1,-1,-1,70,72,74,76,78,80,82,84,-1,86,-1,88,-1,90,92,94,-1,96,98,-1,100,102,104,106,108,-1,-1,-1,-1,-1,-1,-1,-1,-1,-1,-1,-1,-1,-1,-1,-1,-1,-1,-1,-1,-1,-1,-1,-1,-1,-1,-1,-1,-1,-1,-1,-1,-1,-1,-1,-1,-1,-1,-1,-1,-1,-1,-1,-1,-1,-1],"split_conditions":[5E-1,1.85E1,7.9485E1,5E-1,8.7815E1,5.647E1,9.306E1,1.8150349E3,1.5462E2,8.6994995E1,4.955E2,3.05E1,4.85E1,5E-1,2.1126999E2,1.60662E3,9.5695E1,5E-1,3.949E1,1.72996E3,7.89075E2,8.55E1,5E-1,4.3745E1,5.3175E1,6.4305E1,6.65E1,8.24E1,4.1645E1,9.883E1,2.1670999E2,3.705E2,7.5685E1,8.8435E1,-2.9194692E-1,3.1728253E-1,-8.56487E-2,2.0533279E-1,3.57E2,1.72315E3,5.35E1,2.7E2,6.05E1,6.35E1,9.65E1,4.985E2,-1.9330375E-1,3.7125E1,-3.2981712E-2,3.657E1,-3.3966327E-1,4.05E1,7.2979996E1,7.4365005E1,-4.9579083E-3,5.35E1,9.0619995E1,1.2293036E-1,5.55E1,6.85E1,3.8E1,5.317E1,9.9880005E1,1.434806E-1,-5.2168634E-2,5.6211762E-2,4.633751E-1,-2.3299254E-1,8.455332E-2,-2.9324147E-1,-2.3707153E-2,-1.0106169E-3,-2.2606255E-1,1.0036751E-1,-5.49631E-2,1.7391218E-1,-1.5352365E-1,1.570104E-1,-1.9687806E-1,7.3899865E-2,-1.0870295E-1,1.5638238E-1,1.3715136E-2,3.926318E-1,1.3108094E-2,-1.1847584E-1,-3.8317275E-1,-1.0934189E-1,1.3012086E-1,3.1064817E-1,2.4032058E-2,-8.954561E-2,2.2267044E-1,4.080017E-1,4.3524984E-2,-4.1451398E-1,1.7830256E-1,2.3259382E-1,-8.079606E-2,-4.1994852E-1,-7.195294E-2,6.726369E-2,-1.762082E-1,-8.462927E-2,-3.374122E-1,-3.8994125E-1,-1.096063E-1,-1.492685E-2,-3.8226712E-1],"split_indices":[11,0,3,14,1,3,3,3,3,1,2,0,0,7,3,3,1,13,1,3,3,2,13,1,1,3,0,1,1,1,3,2,1,1,0,0,0,0,2,3,0,2,2,2,2,2,0,1,0,1,0,0,1,1,0,0,1,0,0,0,0,1,1,0,0,0,0,0,0,0,0,0,0,0,0,0,0,0,0,0,0,0,0,0,0,0,0,0,0,0,0,0,0,0,0,0,0,0,0,0,0,0,0,0,0,0,0,0,0],"split_type":[0,0,0,0,0,0,0,0,0,0,0,0,0,0,0,0,0,0,0,0,0,0,0,0,0,0,0,0,0,0,0,0,0,0,0,0,0,0,0,0,0,0,0,0,0,0,0,0,0,0,0,0,0,0,0,0,0,0,0,0,0,0,0,0,0,0,0,0,0,0,0,0,0,0,0,0,0,0,0,0,0,0,0,0,0,0,0,0,0,0,0,0,0,0,0,0,0,0,0,0,0,0,0,0,0,0,0,0,0],"sum_hessian":[7.47018E3,5.9826084E3,1.4875713E3,1.0598062E2,5.876628E3,5.7785625E1,1.4297858E3,8.0652054E1,2.5328568E1,4.86337E3,1.0132579E3,2.1741045E1,3.604458E1,2.1894236E1,1.4078915E3,7.57291E1,4.9229527E0,5.919733E0,1.9408834E1,4.7907793E3,7.259093E1,1.00125696E3,1.2000933E1,4.678851E0,1.7062193E1,2.3116465E1,1.2928115E1,1.1921073E1,9.973162E0,1.2884425E2,1.2790472E3,7.005248E1,5.6766214E0,3.7017553E0,1.2211974E0,3.4408748E0,2.4788585E0,1.2495857E0,1.815925E1,4.6477607E3,1.430184E2,2.6226383E1,4.636454E1,7.6436066E1,9.248209E2,1.008386E1,1.9170718E0,3.4504523E0,1.2283987E0,1.4577161E1,2.4850326E0,6.930944E0,1.618552E1,1.0931649E1,1.9964657E0,5.2271066E0,6.693967E0,1.4998279E0,8.473333E0,1.2636965E2,2.4745905E0,3.4968748E0,1.2755504E3,4.8873863E1,2.117862E1,1.2420374E0,4.4345837E0,1.4988028E0,2.2029526E0,1.321444E1,4.944809E0,4.6412925E3,6.46841E0,9.42535E1,4.87649E1,1.3742886E1,1.2483499E1,2.4860868E0,4.3878452E1,2.8608315E1,4.7827747E1,2.4553835E1,9.002671E2,5.454292E0,4.6295686E0,1.461859E0,1.9885932E0,2.4729106E0,1.210425E1,5.226033E0,1.704911E0,1.0708946E1,5.476574E0,9.689481E0,1.2421681E0,3.2378504E0,1.989256E0,4.967579E0,1.7263881E0,7.224223E0,1.2491108E0,1.2116762E2,5.2020364E0,1.2305702E0,1.2440205E0,1.9983099E0,1.498565E0,1.2738025E3,1.7479117E0],"tree_param":{"num_deleted":"0","num_feature":"19","num_nodes":"109","size_leaf_vector":"0"}},{"base_weights":[-2.791245E-4,-1.6626982E-2,1.3100187E-2,-1.057891E-2,-1.8851335E-1,2.3469424E-1,7.7525796E-3,-1.6880726E-2,1.7597951E-1,-3.0948848E-1,1.6575225E-1,7.202165E-2,7.8580856E-1,1.1743445E-1,-1.0294718E-3,-2.1274501E-2,1.878871E-1,7.0602334E-1,7.8044854E-2,-1.8852462E-1,-7.4764585E-1,3.3867526E-1,-2.5396752E-1,8.2573986E-1,-3.2011475E-2,2.0904043E-1,9.217675E-1,2.0300128E-1,-1.784976E-1,1.4889825E-2,-7.140538E-2,2.014723E-1,-2.5421763E-2,-8.7629306E-1,2.476212E-1,1.0518306E0,-3.765354E-1,-1.1677598E0,1.559028E-1,-1.3833772E-1,-1.3365394E0,-1.0993882E0,3.4293032E-1,-1.2202913E-2,8.044873E-1,-9.778406E-1,4.8425344E-1,1.0736094E0,-1.4975995E-1,-1.0755353E0,9.659509E-2,8.457908E-1,-1.0814521E0,1.1462895E0,2.6395845E-1,1.0111418E-1,3.8066858E-1,2.4943586E-1,-3.767411E-1,4.2112774E-1,1.2171954E-2,-9.832417E-2,1.1829571E-1,2.2921925E-2,7.543079E-1,-7.985224E-1,-2.182482E-2,-2.1315768E-1,-1.1241611E0,4.2286035E-1,-2.0107111E-1,4.733709E-1,1.4262874E0,-1.1518283E0,2.3365326E-1,-1.5327535E0,-2.4093875E-1,1.1876793E0,9.557113E-2,-4.0149266E-1,2.3614032E-2,-1.2079009E0,-5.2401745E-1,-3.8410643E-1,7.42647E-1,-5.8128196E-1,3.7416095E-1,1.1416085E0,1.3984053E-1,1.018826E-2,1.1109183E0,2.7492324E-1,1.418568E0,-1.1440978E-2,-1.3393115E0,-2.7680388E-1,2.4980687E-1,2.521431E-1,1.0060934E0,5.471663E-1,1.4056971E0,7.445757E-1,-5.299749E-1,1.4026535E-1,-1.1198777E0,-2.1544504E-1,4.331534E-1,-2.9558025E-2,9.643593E-1,-7.307148E-1,-4.3532412E-2,1.9173576E-2,7.2504663E-1,-2.7771655E-1,1.5897902E-2,-9.154385E-2,-1.0290129E0,3.8721856E-1,3.6851582E-3],"categories":[],"categories_nodes":[],"categories_segments":[],"categories_sizes":[],"default_left":[1,1,1,1,1,1,1,1,1,1,1,1,1,1,1,1,1,1,1,1,1,1,1,1,1,1,1,1,1,1,1,1,1,1,1,1,1,1,1,1,0,1,1,1,1,0,1,1,0,1,1,1,0,1,1,1,1,1,1,1,1,1,1,0,0,0,0,0,0,0,0,0,0,0,0,0,0,0,0,0,0,0,0,0,0,0,0,0,0,0,0,0,0,0,0,0,0,0,0,0,0,0,0,0,0,0,0,0,0,0,0,0,0,0,0,0,0,0,0],"id":9,"left_children":[1,3,5,7,9,11,13,15,17,19,21,23,25,27,29,31,33,35,37,39,41,43,45,47,49,51,53,55,57,59,61,63,65,67,69,71,73,75,77,79,-1,81,83,85,87,-1,89,91,-1,93,95,97,-1,99,101,103,105,107,109,111,113,115,117,-1,-1,-1,-1,-1,-1,-1,-1,-1,-1,-1,-1,-1,-1,-1,-1,-1,-1,-1,-1,-1,-1,-1,-1,-1,-1,-1,-1,-1,-1,-1,-1,-1,-1,-1,-1,-1,-1,-1,-1,-1,-1,-1,-1,-1,-1,-1,-1,-1,-1,-1,-1,-1,-1,-1,-1],"loss_changes":[1.633078E0,3.4914188E0,4.863803E0,3.8206131E0,4.9439855E0,8.614397E0,3.8629682E0,2.830911E0,5.45734E0,4.3880224E0,2.2424743E0,5.9682913E0,1.527895E0,7.564531E0,4.161982E0,2.8475695E0,4.4191737E0,6.549261E0,8.985028E0,3.7502697E0,7.3392706E0,3.5191016E0,5.4116435E0,2.3921037E0,9.169326E0,5.416751E0,2.2765331E0,4.1446724E0,5.7961206E0,3.3399563E0,3.5111911E0,5.545324E0,8.385009E0,3.7408686E-1,5.067852E0,2.0803156E0,2.500019E0,1.4764013E0,5.258573E0,2.8459625E0,0E0,2.387085E-1,1.793066E0,3.1266923E0,1.9106431E0,0E0,1.5465362E0,1.6710615E0,0E0,2.088107E0,3.5620883E0,1.4884138E-1,0E0,1.2077351E0,2.5859282E0,7.242817E0,2.717085E0,4.39294E0,5.4330587E0,2.442174E0,3.2561703E0,3.696412E0,2.637371E0,0E0,0E0,0E0,0E0,0E0,0E0,0E0,0E0,0E0,0E0,0E0,0E0,0E0,0E0,0E0,0E0,0E0,0E0,0E0,0E0,0E0,0E0,0E0,0E0,0E0,0E0,0E0,0E0,0E0,0E0,0E0,0E0,0E0,0E0,0E0,0E0,0E0,0E0,0E0,0E0,0E0,0E0,0E0,0E0,0E0,0E0,0E0,0E0,0E0,0E0,0E0,0E0,0E0,0E0,0E0,0E0],"parents":[2147483647,0,0,1,1,2,2,3,3,4,4,5,5,6,6,7,7,8,8,9,9,10,10,11,11,12,12,13,13,14,14,15,15,16,16,17,17,18,18,19,19,20,20,21,21,22,22,23,23,24,24,25,25,26,26,27,27,28,28,29,29,30,30,31,31,32,32,33,33,34,34,35,35,36,36,37,37,38,38,39,39,41,41,42,42,43,43,44,44,46,46,47,47,49,49,50,50,51,51,53,53,54,54,55,55,56,56,57,57,58,58,59,59,60,60,61,61,62,62],"right_children":[2,4,6,8,10,12,14,16,18,20,22,24,26,28,30,32,34,36,38,40,42,44,46,48,50,52,54,56,58,60,62,64,66,68,70,72,74,76,78,80,-1,82,84,86,88,-1,90,92,-1,94,96,98,-1,100,102,104,106,108,110,112,114,116,118,-1,-1,-1,-1,-1,-1,-1,-1,-1,-1,-1,-1,-1,-1,-1,-1,-1,-1,-1,-1,-1,-1,-1,-1,-1,-1,-1,-1,-1,-1,-1,-1,-1,-1,-1,-1,-1,-1,-1,-1,-1,-1,-1,-1,-1,-1,-1,-1,-1,-1,-1,-1,-1,-1,-1,-1],"split_conditions":[2.525E2,2.455E2,2.585E2,9.753E1,5E-1,5E-1,1.3616501E2,2.415E2,9.7895004E1,1.2433601E3,7.904E1,3.9665E1,4.665E1,4.465E2,5E-1,3.1185001E1,3.4015E1,2.155E2,9.8005005E1,9.807E1,5E-1,6.1095E1,1.3294651E3,5E-1,2.16645E2,4.3305E1,5E-1,9.153E1,4.2835E1,2.5770502E2,4.44265E2,5E-1,3.1535E1,3.95E1,1.192895E3,1.255E2,2.31E2,5E-1,1.48255E2,5.14E1,-4.0096185E-1,1.97725E3,2.465E2,3.85E1,5E-1,-2.933522E-1,5E-1,1.69045E2,-4.4927984E-2,3.45E1,5.8845E1,2.4066E2,-3.2443565E-1,4.661E2,5E-1,9.067E1,2.725E2,5.95E1,5E-1,4.25E1,3.0885E1,4.4102502E2,4.7775E2,6.876578E-3,2.2629239E-1,-2.3955673E-1,-6.5474464E-3,-6.3947305E-2,-3.3724836E-1,1.2685812E-1,-6.0321335E-2,1.4201128E-1,4.2788625E-1,-3.455485E-1,7.009598E-2,-4.5982605E-1,-7.228163E-2,3.563038E-1,2.8671341E-2,-1.204478E-1,7.08421E-3,-3.6237028E-1,-1.5720524E-1,-1.1523193E-1,2.227941E-1,-1.743846E-1,1.1224829E-1,3.4248257E-1,4.195216E-2,3.0564782E-3,3.332755E-1,8.247697E-2,4.2557043E-1,-3.4322937E-3,-4.0179345E-1,-8.304117E-2,7.494206E-2,7.5642936E-2,3.0182803E-1,1.641499E-1,4.2170915E-1,2.2337271E-1,-1.5899247E-1,4.2079605E-2,-3.359633E-1,-6.463352E-2,1.2994602E-1,-8.867408E-3,2.893078E-1,-2.1921445E-1,-1.3059724E-2,5.7520727E-3,2.17514E-1,-8.331497E-2,4.769371E-3,-2.7463157E-2,-3.087039E-1,1.1616557E-1,1.1055475E-3],"split_indices":[2,2,2,1,16,11,3,2,1,3,1,1,1,2,14,1,1,2,1,1,11,1,3,15,3,1,16,3,1,3,3,9,1,0,3,2,2,16,3,1,0,3,2,0,5,0,11,3,0,0,1,3,0,3,5,3,2,0,7,0,1,3,3,0,0,0,0,0,0,0,0,0,0,0,0,0,0,0,0,0,0,0,0,0,0,0,0,0,0,0,0,0,0,0,0,0,0,0,0,0,0,0,0,0,0,0,0,0,0,0,0,0,0,0,0,0,0,0,0],"split_type":[0,0,0,0,0,0,0,0,0,0,0,0,0,0,0,0,0,0,0,0,0,0,0,0,0,0,0,0,0,0,0,0,0,0,0,0,0,0,0,0,0,0,0,0,0,0,0,0,0,0,0,0,0,0,0,0,0,0,0,0,0,0,0,0,0,0,0,0,0,0,0,0,0,0,0,0,0,0,0,0,0,0,0,0,0,0,0,0,0,0,0,0,0,0,0,0,0,0,0,0,0,0,0,0,0,0,0,0,0,0,0,0,0,0,0,0,0,0,0],"sum_hessian":[7.4644224E3,3.3594045E3,4.1050176E3,3.2462422E3,1.131622E2,9.5719215E1,4.0092986E3,3.1410493E3,1.0519298E2,8.445036E1,2.8711836E1,7.477773E1,2.0941483E1,2.9630298E2,3.7129956E3,3.0759438E3,6.5105515E1,1.5436753E1,8.9756226E1,6.730067E1,1.7149696E1,2.0470964E1,8.240871E0,8.228088E0,6.6549644E1,4.4788256E0,1.6462656E1,2.3008844E2,6.621455E1,3.028684E3,6.843114E2,5.5353664E1,3.02059E3,2.7337136E0,6.2371796E1,1.1721029E1,3.715724E0,4.4560704E0,8.5300156E1,6.5555336E1,1.7453319E0,1.2961241E1,4.188456E0,1.2231358E1,8.239606E0,3.9969828E0,4.243889E0,6.480782E0,1.7473066E0,6.493981E0,6.005566E1,3.2297914E0,1.2490342E0,1.1719868E1,4.7427883E0,1.4722707E2,8.286137E1,2.0881336E1,4.533321E1,1.910516E1,3.0095789E3,5.996956E2,8.461578E1,4.262761E1,1.2726058E1,1.2965106E1,3.007625E3,1.2498591E0,1.4838547E0,4.489528E1,1.7476519E1,5.495599E0,6.225431E0,1.2455258E0,2.4701982E0,2.727982E0,1.7280886E0,3.6799955E0,8.162016E1,2.4410955E1,4.1144382E1,9.979756E0,2.9814842E0,1.4997125E0,2.6887438E0,4.742132E0,7.489226E0,4.990643E0,3.2489634E0,2.9946933E0,1.2491955E0,2.4968276E0,3.9839544E0,1.4972653E0,4.9967155E0,1.723786E1,4.2817802E1,1.2337545E0,1.9960369E0,4.480674E0,7.239194E0,2.993067E0,1.7497213E0,1.4351051E2,3.71655E0,6.4539213E0,7.640745E1,1.5709477E1,5.171859E0,2.1403215E1,2.3929993E1,8.683589E0,1.0421571E1,3.7258198E1,2.9723208E3,5.9644867E2,3.2469308E0,2.4574793E1,6.0040993E1],"tree_param":{"num_deleted":"0","num_feature":"19","num_nodes":"119","size_leaf_vector":"0"}},{"base_weights":[-2.141889E-4,-3.1272724E-2,6.0684537E-3,7.3500866E-1,-3.7776668E-2,2.139929E-1,8.978089E-4,8.764287E-1,-5.559785E-2,-4.2484574E-2,6.688097E-1,-1.0550129E-1,3.449454E-1,2.4953607E-2,-2.2886762E-2,1.167244E-1,1.0363925E0,-4.56611E-3,-1.1710704E-1,8.633246E-1,1.3625304E-1,4.9153513E-1,-2.1432985E-1,-5.959353E-1,4.0567845E-1,1.1432298E-2,2.722627E-1,-4.632617E-2,7.0233114E-2,1.2649688E0,4.0903595E-1,1.5901353E-2,-2.2813681E-1,-1.6855243E-1,1.851288E-1,1.7768551E-1,1.0040777E0,3.8770163E-1,-1.715137E-1,-4.025677E-1,7.878167E-1,-6.8515104E-1,6.667002E-2,2.153484E-2,-1.3207958E0,7.334022E-1,2.7542365E-1,1.02545775E-1,-2.473348E-2,8.8784315E-2,6.366512E-1,-1.8643202E-1,-2.556538E-2,-3.8685855E-2,1.7973731E-1,1.3490474E-1,5.0056994E-1,-4.9008124E-2,1.4316346E-1,-4.1576228E-1,7.0317E-2,-2.1744002E-1,6.607029E-2,1.6581133E-3,5.6800306E-1,1.0804474E0,-1.5428866E-1,-8.030365E-3,-1.1960443E0,1.8524747E-1,-4.784163E-1,-3.6817548E-1,6.1428964E-1,4.4235325E-1,1.1186054E0,-7.7533436E-1,3.1918347E-1,1.8961412E-1,3.3202093E-2,1.7230751E-2,-6.631878E-2,1.1045007E0,1.900428E-2,-5.008259E-4,7.2698677E-1,-6.790454E-1,-1.4428374E-1,1.2830225E0,-2.767685E-2,-6.3492525E-3,-1.115794E0,1.6260229E-1,1.0520117E0],"categories":[],"categories_nodes":[],"categories_segments":[],"categories_sizes":[],"default_left":[1,1,1,1,1,1,1,1,0,1,1,1,1,1,1,0,1,1,1,1,1,1,1,1,1,1,1,1,1,0,1,1,1,1,1,0,0,0,0,0,1,1,1,1,0,1,1,1,1,1,1,1,1,1,1,0,0,0,0,0,0,0,0,0,0,0,0,0,0,0,0,0,0,0,0,0,0,0,0,0,0,0,0,0,0,0,0,0,0,0,0,0,0],"id":10,"left_children":[1,3,5,7,9,11,13,15,-1,17,19,21,23,25,27,-1,29,31,33,35,37,39,41,43,45,47,49,51,53,-1,55,57,59,61,63,-1,-1,-1,-1,-1,65,67,69,71,-1,73,75,77,79,81,83,85,87,89,91,-1,-1,-1,-1,-1,-1,-1,-1,-1,-1,-1,-1,-1,-1,-1,-1,-1,-1,-1,-1,-1,-1,-1,-1,-1,-1,-1,-1,-1,-1,-1,-1,-1,-1,-1,-1,-1,-1],"loss_changes":[1.455784E0,6.283704E0,6.671235E0,1.235374E0,4.1720533E0,6.3358693E0,3.465448E0,9.8035574E-1,0E0,3.5033906E0,7.4261236E-1,2.9991877E0,6.357627E0,1.0066234E1,6.6508007E0,0E0,5.3790045E-1,3.7656603E0,6.517921E0,3.9051342E-1,3.30315E-1,2.2166324E0,5.1217346E0,3.1143742E0,4.1151543E0,9.41414E0,1.037699E1,7.0742936E0,7.3164616E0,0E0,1.8868268E-2,6.236423E0,3.894053E0,4.109541E0,4.2952847E0,0E0,0E0,0E0,0E0,0E0,1.7447171E0,4.981877E0,1.7005346E0,1.3135211E0,0E0,2.6625376E0,3.6487503E0,4.8948145E0,3.5705686E0,7.4179244E0,2.9991398E0,6.420101E0,5.8954215E0,1.0722953E1,4.3992767E0,0E0,0E0,0E0,0E0,0E0,0E0,0E0,0E0,0E0,0E0,0E0,0E0,0E0,0E0,0E0,0E0,0E0,0E0,0E0,0E0,0E0,0E0,0E0,0E0,0E0,0E0,0E0,0E0,0E0,0E0,0E0,0E0,0E0,0E0,0E0,0E0,0E0,0E0],"parents":[2147483647,0,0,1,1,2,2,3,3,4,4,5,5,6,6,7,7,9,9,10,10,11,11,12,12,13,13,14,14,16,16,17,17,18,18,19,19,20,20,21,21,22,22,23,23,24,24,25,25,26,26,27,27,28,28,30,30,31,31,32,32,33,33,34,34,40,40,41,41,42,42,43,43,45,45,46,46,47,47,48,48,49,49,50,50,51,51,52,52,53,53,54,54],"right_children":[2,4,6,8,10,12,14,16,-1,18,20,22,24,26,28,-1,30,32,34,36,38,40,42,44,46,48,50,52,54,-1,56,58,60,62,64,-1,-1,-1,-1,-1,66,68,70,72,-1,74,76,78,80,82,84,86,88,90,92,-1,-1,-1,-1,-1,-1,-1,-1,-1,-1,-1,-1,-1,-1,-1,-1,-1,-1,-1,-1,-1,-1,-1,-1,-1,-1,-1,-1,-1,-1,-1,-1,-1,-1,-1,-1,-1,-1],"split_conditions":[2.65E1,5.35E1,2.75E1,9.4255005E1,4.975E2,5.1275E1,6.4535E1,2.7419E2,-1.6679356E-2,2.35E1,2.35E1,1.3166501E2,1.78845E2,6.2705E1,5E-1,3.5017323E-2,1.15363E3,4.605E2,9.094E1,1.95E1,5E-1,4.5989998E1,4.1062E2,3.51E2,6.05735E2,3.95E1,5.55E1,6.9285E1,1.02297E3,3.7949064E-1,7.853E1,3.245E2,9.0131995E2,1.2560701E3,5E-1,5.3305656E-2,3.012233E-1,1.1631049E-1,-5.1454116E-2,-1.2077032E-1,3.525E2,5E-1,5E-1,2.465E2,-3.9623874E-1,4.6884E2,6.61265E2,4.4585E1,5E-1,7.1E1,1.085E2,3.05E1,7.0155E1,9.94945E2,9.9475006E1,4.0471423E-2,1.5017098E-1,-1.4702437E-2,4.294904E-2,-1.2472869E-1,2.10951E-2,-6.523201E-2,1.9821087E-2,4.97434E-4,1.7040092E-1,3.2413423E-1,-4.62866E-2,-2.4091096E-3,-3.5881332E-1,5.5574242E-2,-1.435249E-1,-1.10452645E-1,1.8428689E-1,1.3270599E-1,3.3558163E-1,-2.3260032E-1,9.575505E-2,5.6884237E-2,9.960628E-3,5.1692254E-3,-1.9895636E-2,3.313502E-1,5.701284E-3,-1.5024777E-4,2.1809603E-1,-2.0371363E-1,-4.3285124E-2,3.8490677E-1,-8.303056E-3,-1.9047759E-3,-3.347382E-1,4.878069E-2,3.1560352E-1],"split_indices":[0,2,0,1,2,1,1,3,0,0,0,3,3,1,12,0,3,2,1,0,15,3,3,2,3,0,0,1,3,0,1,2,3,3,15,0,0,0,0,0,2,7,12,2,0,3,3,1,7,2,2,0,3,3,1,0,0,0,0,0,0,0,0,0,0,0,0,0,0,0,0,0,0,0,0,0,0,0,0,0,0,0,0,0,0,0,0,0,0,0,0,0,0],"split_type":[0,0,0,0,0,0,0,0,0,0,0,0,0,0,0,0,0,0,0,0,0,0,0,0,0,0,0,0,0,0,0,0,0,0,0,0,0,0,0,0,0,0,0,0,0,0,0,0,0,0,0,0,0,0,0,0,0,0,0,0,0,0,0,0,0,0,0,0,0,0,0,0,0,0,0,0,0,0,0,0,0,0,0,0,0,0,0,0,0,0,0,0,0],"sum_hessian":[7.458625E3,1.2542422E3,6.204383E3,9.613294E0,1.2446289E3,1.4956627E2,6.0548164E3,8.062551E0,1.5507438E0,1.2373246E3,7.304288E0,4.353796E1,1.06028305E2,3.0102202E3,3.0445962E3,1.7032274E0,6.3593225E0,8.211359E2,4.161887E2,4.895225E0,2.4090624E0,6.1703973E0,3.736756E1,5.8947077E0,1.001336E2,2.8551638E3,1.5505621E2,2.4327468E3,6.1184955E2,3.9161372E0,2.4431856E0,7.531183E2,6.801765E1,3.5602914E2,6.0159554E1,1.2191025E0,3.6761227E0,1.1828976E0,1.2261649E0,1.4464982E0,4.723899E0,1.3428899E1,2.3938663E1,3.7071095E0,2.1875985E0,2.716227E1,7.297133E1,8.1075934E2,2.0444045E3,1.0395567E2,5.1100536E1,3.129305E2,2.1198162E3,3.0706866E2,3.0478088E2,1.2308342E0,1.2123513E0,4.99146E2,2.539723E2,4.1521656E1,2.6495989E1,2.9469724E2,6.13319E1,4.1349495E1,1.8810059E1,3.4922998E0,1.2315995E0,6.2117596E0,7.2171392E0,2.020372E1,3.7349436E0,2.4652135E0,1.2418959E0,1.6695768E1,1.04665E1,2.2490628E0,7.072226E1,3.58673E2,4.5208636E2,1.01785767E3,1.0265469E3,5.7294617E0,9.822621E1,6.4688807E0,4.4631653E1,2.3473232E1,2.894573E2,2.4376452E0,2.1173787E3,2.990952E2,7.9734483E0,3.0007263E2,4.7082376E0],"tree_param":{"num_deleted":"0","num_feature":"19","num_nodes":"93","size_leaf_vector":"0"}},{"base_weights":[7.262442E-5,-7.2128684E-3,2.933619E-2,-7.371015E-1,-6.7000524E-3,3.199083E-2,-9.9292004E-1,-1.3613925E0,2.541762E-1,9.3464255E-1,-7.321035E-3,2.6749412E-2,3.499293E-1,-8.015876E-3,4.689917E-1,2.9582718E-2,-1.364081E0,5.252843E-1,-6.8645996E-1,-1.076229E0,-7.213222E-3,-9.225005E-1,8.129049E-1,1.0032264E-1,5.4451623E-3,6.749886E-1,-1.035361E0,-1.5442657E-1,-1.024966E0,-1.3195049E0,-2.465325E-1,-6.6361357E-3,-8.262038E-1,1.1349304E0,7.9722755E-2,2.3976354E-2,3.0316943E-1,-5.290507E-2,5.188393E-2,2.4300157E-1,9.269774E-1],"categories":[],"categories_nodes":[],"categories_segments":[],"categories_sizes":[],"default_left":[1,1,1,1,1,1,0,0,0,0,1,1,1,1,1,1,0,1,1,1,1,0,1,1,1,1,0,0,0,0,0,0,0,0,0,0,0,0,0,0,0],"id":11,"left_children":[1,3,5,7,9,11,-1,-1,-1,-1,13,15,17,19,21,23,-1,25,27,29,31,-1,33,35,37,39,-1,-1,-1,-1,-1,-1,-1,-1,-1,-1,-1,-1,-1,-1,-1],"loss_changes":[1.5894138E0,2.229254E0,4.0644913E0,2.9338486E0,3.4942105E0,2.4622653E0,0E0,0E0,0E0,0E0,1.977246E0,5.7944813E0,4.717103E0,5.0982456E0,4.9146247E0,2.4893284E0,0E0,5.621361E0,5.445454E-1,5.7585907E-1,2.8074687E0,0E0,1.6825752E0,5.737051E0,2.9516885E0,1.9333954E0,0E0,0E0,0E0,0E0,0E0,0E0,0E0,0E0,0E0,0E0,0E0,0E0,0E0,0E0,0E0],"parents":[2147483647,0,0,1,1,2,2,3,3,4,4,5,5,10,10,11,11,12,12,13,13,14,14,15,15,17,17,18,18,19,19,20,20,22,22,23,23,24,24,25,25],"right_children":[2,4,6,8,10,12,-1,-1,-1,-1,14,16,18,20,22,24,-1,26,28,30,32,-1,34,36,38,40,-1,-1,-1,-1,-1,-1,-1,-1,-1,-1,-1,-1,-1,-1,-1],"split_conditions":[5E-1,3.0735E1,9.9915E1,5.1E1,3.166E1,5.018101E-1,-2.9787603E-1,-4.0841776E-1,7.625286E-2,2.8039277E-1,5.2376914E-1,4.9997723E-1,5.236492E-1,3.318E1,2.2E1,1.605E2,-4.0922433E-1,8.6045E1,2.75E1,5E-1,5.2120936E-1,-2.7675015E-1,5.2944404E-1,1.315E2,6.7965E2,4E2,-3.1060833E-1,-4.6327975E-2,-3.074898E-1,-3.9585146E-1,-7.395975E-2,-1.9908408E-3,-2.4786116E-1,3.4047914E-1,2.3916828E-2,7.1929065E-3,9.095083E-2,-1.5871523E-2,1.5565179E-2,7.2900474E-2,2.7809322E-1],"split_indices":[13,3,1,0,3,18,0,0,0,0,18,18,18,3,0,2,0,1,0,9,18,0,18,2,3,2,0,0,0,0,0,0,0,0,0,0,0,0,0,0,0],"split_type":[0,0,0,0,0,0,0,0,0,0,0,0,0,0,0,0,0,0,0,0,0,0,0,0,0,0,0,0,0,0,0,0,0,0,0,0,0,0,0,0,0],"sum_hessian":[7.453062E3,5.9680117E3,1.48505E3,3.1816797E0,5.96483E3,1.4821698E3,2.880258E0,1.7231166E0,1.4585632E0,2.9406993E0,5.9618896E3,1.4591981E3,2.2971674E1,5.9541865E3,7.7027426E0,1.4572084E3,1.9897972E0,2.006917E1,2.902504E0,3.464611E0,5.950722E3,1.1930857E0,6.509657E0,3.6992197E2,1.0872864E3,1.8830368E1,1.2388024E0,1.6948662E0,1.2076379E0,2.2225802E0,1.2420309E0,5.9475396E3,3.1827178E0,4.142328E0,2.367329E0,2.6957797E2,1.0034398E2,4.8178503E2,6.0550134E2,7.6611347E0,1.1169232E1],"tree_param":{"num_deleted":"0","num_feature":"19","num_nodes":"41","size_leaf_vector":"0"}},{"base_weights":[-1.6331764E-4,-1.0111048E-2,1.949926E-2,6.3401614E-3,-6.539476E-2,-7.287491E-2,3.3236783E-2,-2.8032053E-1,8.291875E-3,5.136596E-1,-7.7641554E-2,4.110472E-3,-2.805168E-1,4.1788243E-2,-1.4810523E-1,2.831044E-1,-7.1169156E-1,2.4109688E-1,5.895941E-3,7.971018E-1,3.7307102E-2,-9.7291455E-2,1.5727873E-1,-8.4065124E-2,2.3267895E-1,-6.9691944E-1,-1.5488161E-1,2.9339645E-2,2.7951604E-1,1.1567736E-1,-3.3109725E-1,5.7259053E-1,-4.3910277E-1,-1.0721445E0,6.5378183E-1,5.3561413E-1,-2.9077366E-1,-4.8343974E-1,8.123394E-3,9.222074E-1,2.1853685E-1,-2.4370816E-1,6.9768333E-1,4.0365048E-2,-1.2963167E-1,4.4133523E-1,-1.9296774E-1,-1.8383116E-1,9.843247E-2,8.241283E-1,9.64692E-2,-1.2721065E-1,-9.71383E-1,1.8699974E-1,-3.2982695E-1,1.8198088E-1,1.7524906E-2,3.9638013E-1,-9.3182795E-2,-3.596323E-2,8.6632377E-1,-5.369701E-1,8.442286E-2,1.066271E0,6.348259E-2,-8.4330815E-1,2.462227E-1,-1.4344413E0,3.00755E-2,3.6967948E-2,8.0397946E-1,-7.0082587E-1,3.6415166E-1,-8.736252E-1,-5.3600274E-2,3.6343295E-2,-1.1193275E-2,1.0664861E0,3.210973E-2,-7.04294E-1,9.0688163E-1,4.811511E-1,-8.658877E-1,-6.881783E-2,4.9624133E-1,-3.45971E-1,-8.970756E-2,1.4474636E-1,1.0863926E0,2.5814983E-1,-6.119509E-1,-1.537245E-1,-1.0755577E0,6.759544E-1,-1.2624856E-2,1.0338244E0,-4.746967E-1,6.8279654E-1,-5.457435E-5,4.5785442E-1,-7.829505E-1,-1.3633635E0,-6.967453E-1,6.704783E-1,-1.6326503E-1,-1.3236892E0,-1.6194294E-1,1.0665616E-1,7.9676306E-1,-4.1562274E-1,2.9810565E-2,-2.4963003E-1,4.8391202E-1,-6.022958E-1,5.141335E-2,-2.2390342E-1,6.0958755E-1,1.3635455E0,-1.6277677E-1,-7.385696E-1,-1.2424281E-2,-1.3083029E-1,5.491717E-1],"categories":[],"categories_nodes":[],"categories_segments":[],"categories_sizes":[],"default_left":[1,1,1,1,1,1,1,1,1,1,1,1,1,1,1,1,1,1,1,1,1,1,1,1,1,1,1,1,1,1,1,1,1,1,0,1,1,1,1,1,1,1,0,1,1,1,1,1,1,1,1,1,1,1,1,1,1,1,1,1,1,1,1,0,0,0,0,0,0,0,0,0,0,0,0,0,0,0,0,0,0,0,0,0,0,0,0,0,0,0,0,0,0,0,0,0,0,0,0,0,0,0,0,0,0,0,0,0,0,0,0,0,0,0,0,0,0,0,0,0,0,0,0],"id":12,"left_children":[1,3,5,7,9,11,13,15,17,19,21,23,25,27,29,31,33,35,37,39,41,43,45,47,49,51,53,55,57,59,61,63,65,67,-1,69,71,73,75,77,79,81,-1,83,85,87,89,91,93,95,97,99,101,103,105,107,109,111,113,115,117,119,121,-1,-1,-1,-1,-1,-1,-1,-1,-1,-1,-1,-1,-1,-1,-1,-1,-1,-1,-1,-1,-1,-1,-1,-1,-1,-1,-1,-1,-1,-1,-1,-1,-1,-1,-1,-1,-1,-1,-1,-1,-1,-1,-1,-1,-1,-1,-1,-1,-1,-1,-1,-1,-1,-1,-1,-1,-1,-1,-1,-1],"loss_changes":[1.4578375E0,4.5016966E0,3.1799207E0,2.136822E0,8.089664E0,5.1881294E0,3.3875294E0,6.4789295E0,2.1127644E0,3.1623006E0,5.150686E0,4.810256E0,4.4842396E0,6.156355E0,4.788708E0,2.7425423E0,8.040973E0,6.200048E0,4.094304E0,8.677521E-1,2.0014021E0,4.578285E0,8.666444E0,3.1545386E0,5.272765E0,3.0131168E0,4.171835E0,3.5685205E0,4.546376E0,4.7037625E0,5.037997E0,2.1792266E0,1.3088801E0,4.9059134E0,0E0,3.340672E0,4.1223364E0,2.8079774E0,2.0373435E0,1.4857426E0,3.139623E0,3.8729534E0,0E0,9.798913E0,7.155463E0,9.012743E0,7.5902405E0,2.8341799E0,3.9554858E0,3.8417873E0,3.1202958E0,3.3021448E0,4.9126434E-1,4.1567717E0,7.4308524E0,6.4989944E0,9.800484E0,4.5885286E0,1.9099656E0,4.396305E0,3.7724495E0,4.132242E0,2.0926754E0,0E0,0E0,0E0,0E0,0E0,0E0,0E0,0E0,0E0,0E0,0E0,0E0,0E0,0E0,0E0,0E0,0E0,0E0,0E0,0E0,0E0,0E0,0E0,0E0,0E0,0E0,0E0,0E0,0E0,0E0,0E0,0E0,0E0,0E0,0E0,0E0,0E0,0E0,0E0,0E0,0E0,0E0,0E0,0E0,0E0,0E0,0E0,0E0,0E0,0E0,0E0,0E0,0E0,0E0,0E0,0E0,0E0,0E0,0E0,0E0],"parents":[2147483647,0,0,1,1,2,2,3,3,4,4,5,5,6,6,7,7,8,8,9,9,10,10,11,11,12,12,13,13,14,14,15,15,16,16,17,17,18,18,19,19,20,20,21,21,22,22,23,23,24,24,25,25,26,26,27,27,28,28,29,29,30,30,31,31,32,32,33,33,35,35,36,36,37,37,38,38,39,39,40,40,41,41,43,43,44,44,45,45,46,46,47,47,48,48,49,49,50,50,51,51,52,52,53,53,54,54,55,55,56,56,57,57,58,58,59,59,60,60,61,61,62,62],"right_children":[2,4,6,8,10,12,14,16,18,20,22,24,26,28,30,32,34,36,38,40,42,44,46,48,50,52,54,56,58,60,62,64,66,68,-1,70,72,74,76,78,80,82,-1,84,86,88,90,92,94,96,98,100,102,104,106,108,110,112,114,116,118,120,122,-1,-1,-1,-1,-1,-1,-1,-1,-1,-1,-1,-1,-1,-1,-1,-1,-1,-1,-1,-1,-1,-1,-1,-1,-1,-1,-1,-1,-1,-1,-1,-1,-1,-1,-1,-1,-1,-1,-1,-1,-1,-1,-1,-1,-1,-1,-1,-1,-1,-1,-1,-1,-1,-1,-1,-1,-1,-1,-1,-1],"split_conditions":[5.25E1,4.45E1,1.085E2,3.0445E1,6.05E1,9.35E1,4.835E2,5E-1,3.1175E1,4.95E1,4.675E2,6.55E1,3.2836E2,4.665E2,5.95E1,5E-1,5E-1,3.45E1,3.153E1,1.2242E3,8.0575E1,2.95005E2,8.76145E2,7.541499E1,6.65E1,5.95E1,7.21065E2,1.3291501E2,5E-1,8.939E1,6.65E1,2.33E2,3.95E1,5E-1,1.9613455E-1,2.35E1,3.0965E1,3.05E1,5.9075E1,5E-1,1.42341E3,5.55E1,2.09305E-1,5E-1,4.7522E2,5.98025E2,4.825E2,7.48E1,3.6488E2,9.4085E1,2.2782E2,1.80275E2,9.818E1,5.95E1,4.6644997E1,1.20525E2,1.7136E2,3.6605E1,5.55E1,5E-1,5.55E1,1.1107E3,8.0104996E1,3.198813E-1,1.9044777E-2,-2.5299245E-1,7.3866814E-2,-4.3033242E-1,9.02265E-3,1.1090385E-2,2.4119385E-1,-2.1024777E-1,1.092455E-1,-2.6208758E-1,-1.6080083E-2,1.0902989E-2,-3.3579827E-3,3.1994584E-1,9.632919E-3,-2.1128821E-1,2.720645E-1,1.4434534E-1,-2.597663E-1,-2.064535E-2,1.488724E-1,-1.03791304E-1,-2.691227E-2,4.342391E-2,3.259178E-1,7.7444956E-2,-1.8358527E-1,-4.6117354E-2,-3.2266733E-1,2.0278633E-1,-3.787457E-3,3.1014735E-1,-1.4240901E-1,2.0483898E-1,-1.6372305E-5,1.3735633E-1,-2.3488517E-1,-4.0900907E-1,-2.090236E-1,2.0114349E-1,-4.8979513E-2,-3.971068E-1,-4.8582885E-2,3.199685E-2,2.3902893E-1,-1.2468683E-1,8.943169E-3,-7.488901E-2,1.4517361E-1,-1.8068875E-1,1.5424006E-2,-6.717103E-2,1.8287627E-1,4.0906367E-1,-4.883303E-2,-2.215709E-1,-3.7272845E-3,-3.924909E-2,1.6475151E-1],"split_indices":[0,0,2,1,2,2,2,7,1,0,2,0,3,2,0,16,13,0,1,3,1,3,3,1,0,0,3,3,16,1,0,2,0,15,0,0,1,0,1,12,3,2,0,9,3,3,2,1,3,1,3,3,3,0,1,3,3,1,0,13,0,3,1,0,0,0,0,0,0,0,0,0,0,0,0,0,0,0,0,0,0,0,0,0,0,0,0,0,0,0,0,0,0,0,0,0,0,0,0,0,0,0,0,0,0,0,0,0,0,0,0,0,0,0,0,0,0,0,0,0,0,0,0],"split_type":[0,0,0,0,0,0,0,0,0,0,0,0,0,0,0,0,0,0,0,0,0,0,0,0,0,0,0,0,0,0,0,0,0,0,0,0,0,0,0,0,0,0,0,0,0,0,0,0,0,0,0,0,0,0,0,0,0,0,0,0,0,0,0,0,0,0,0,0,0,0,0,0,0,0,0,0,0,0,0,0,0,0,0,0,0,0,0,0,0,0,0,0,0,0,0,0,0,0,0,0,0,0,0,0,0,0,0,0,0,0,0,0,0,0,0,0,0,0,0,0,0,0,0],"sum_hessian":[7.4512246E3,4.948271E3,2.5029534E3,3.8141497E3,1.1341213E3,3.2348227E2,2.1794712E3,2.482831E1,3.7893213E3,2.2641497E1,1.1114797E3,2.3670256E2,8.677972E1,2.082058E3,9.741303E1,1.0915284E1,1.3913025E1,3.7585995E1,3.7517354E3,1.3772909E1,8.868587E0,1.0262269E3,8.525287E1,1.7126523E2,6.5437325E1,1.9060114E1,6.7719604E1,1.9795239E3,1.0253418E2,4.004955E1,5.7363483E1,7.93987E0,2.9754148E0,1.11772995E1,2.7357259E0,2.4186152E1,1.3399844E1,1.6021544E1,3.7357139E3,1.0835866E1,2.9370432E0,6.6638293E0,2.2047577E0,1.9518246E2,8.3104443E2,4.6930927E1,3.832194E1,1.1072684E2,6.0538395E1,1.130376E1,5.4133568E1,6.672785E0,1.2387329E1,2.2899696E1,4.4819904E1,1.4117697E2,1.838347E3,7.800977E1,2.4524412E1,3.41108E1,5.9387465E0,3.8163017E1,1.9200464E1,3.4753973E0,4.4644723E0,1.726564E0,1.2488506E0,8.185376E0,2.9919229E0,8.860437E0,1.5325714E1,8.197353E0,5.2024913E0,7.8569636E0,8.16458E0,1.5176636E3,2.2180503E3,9.1539135E0,1.681953E0,1.2448978E0,1.6921455E0,3.1826305E0,3.4811988E0,1.5815355E2,3.702891E1,1.2827686E2,7.027676E2,3.298791E1,1.3943014E1,1.8638163E1,1.9683777E1,1.0824465E2,2.4821887E0,8.943539E0,5.159486E1,9.908118E0,1.3956411E0,6.793433E0,4.7340134E1,3.685911E0,2.9868736E0,3.4702046E0,8.917125E0,9.236348E0,1.3663348E1,5.4820404E0,3.9337868E1,1.26812996E2,1.4363976E1,4.979863E1,1.7885483E3,9.0877495E0,6.892202E1,4.7244797E0,1.9799932E1,2.692519E1,7.1856127E0,3.784995E0,2.1537516E0,2.727309E1,1.0889927E1,1.3613654E1,5.58681E0],"tree_param":{"num_deleted":"0","num_feature":"19","num_nodes":"123","size_leaf_vector":"0"}},{"base_weights":[-8.65623E-5,-3.4513953E-4,7.3904705E-1,1.04823695E-4,-8.734504E-1,4.9939787E-4,-4.446869E-1,-2.497235E-1,1.1619759E-3,-7.023428E-1,5.1878616E-2,1.1235162E-1,-6.1914E-1,4.2148313E-1,2.837926E-4,-2.3998259E-1,-1.0038798E0,1.3409203E-1,-5.5994816E-2,-4.513139E-1,4.565969E-1,-8.990323E-2,-1.1433507E0,8.664877E-1,-1.5341826E-1,-6.3629594E-4,1.975071E-1],"categories":[],"categories_nodes":[],"categories_segments":[],"categories_sizes":[],"default_left":[1,1,0,1,0,1,1,1,1,1,1,1,1,1,1,0,0,0,0,0,0,0,0,0,0,0,0],"id":13,"left_children":[1,3,-1,5,-1,7,9,11,13,15,17,19,21,23,25,-1,-1,-1,-1,-1,-1,-1,-1,-1,-1,-1,-1],"loss_changes":[1.4229426E0,2.923883E0,0E0,1.3058596E0,0E0,1.2327554E0,8.801887E-1,2.6961353E0,2.7369566E0,3.7401247E-1,3.5747133E-2,2.2945971E0,2.636441E0,4.088028E0,1.3430779E0,0E0,0E0,0E0,0E0,0E0,0E0,0E0,0E0,0E0,0E0,0E0,0E0],"parents":[2147483647,0,0,1,1,3,3,5,5,6,6,7,7,8,8,9,9,10,10,11,11,12,12,13,13,14,14],"right_children":[2,4,-1,6,-1,8,10,12,14,16,18,20,22,24,26,-1,-1,-1,-1,-1,-1,-1,-1,-1,-1,-1,-1],"split_conditions":[5.329294E-1,5.293062E-1,2.2171412E-1,2.35908E3,-2.6203513E-1,3.4510002E1,5E-1,3.2495003E1,3.8235E1,2.725E2,3.135E2,2.15E2,4.3E1,5E-1,5.124377E-1,-7.199478E-2,-3.0116394E-1,4.022761E-2,-1.6798446E-2,-1.3539419E-1,1.3697907E-1,-2.697097E-2,-3.4300524E-1,2.5994632E-1,-4.6025477E-2,-1.908888E-4,5.925213E-2],"split_indices":[18,18,0,3,0,3,7,1,3,2,2,2,0,7,18,0,0,0,0,0,0,0,0,0,0,0,0],"split_type":[0,0,0,0,0,0,0,0,0,0,0,0,0,0,0,0,0,0,0,0,0,0,0,0,0,0,0],"sum_hessian":[7.4428276E3,7.441224E3,1.603692E0,7.4383906E3,2.8335664E0,7.4327954E3,5.5947466E0,1.8636976E1,7.4141587E3,3.4106438E0,2.1841025E0,9.763436E0,8.873539E0,1.4459627E1,7.399699E3,2.055191E0,1.3554528E0,1.1015387E0,1.0825639E0,3.5839956E0,6.1794405E0,4.9985576E0,3.8749816E0,7.864719E0,6.594908E0,7.36633E3,3.336872E1],"tree_param":{"num_deleted":"0","num_feature":"19","num_nodes":"27","size_leaf_vector":"0"}},{"base_weights":[-1.2892824E-4,3.639287E-2,-4.213864E-3,1.4773582E-1,-1.2575866E-3,-2.4693431E-1,-2.9684755E-3,4.7376546E-1,5.2082006E-2,-1.0206058E-2,5.0534546E-1,-3.7892148E-2,-6.513208E-1,-1.3387161E-2,1.7613977E-2,2.0039001E-1,9.403602E-1,-8.932736E-1,1.0712035E-1,-3.0480106E-3,-7.4444675E-1,-6.4475256E-1,8.0292547E-1,1.0333454E-1,-1.1592916E0,-8.3470273E-1,3.7871912E-1,-1.147759E-1,-8.21595E-3,-1.8510604E-1,2.3491777E-2,-5.5631597E-2,1.032747E0,-3.8904298E-2,1.0842443E0,-1.237833E0,-2.1896161E-1,1.323052E-1,-1.2151259E0,-1.3381791E-1,3.0930735E-2,-4.146941E-2,-1.2026185E0,1.0621581E0,4.269873E-2,-1.535968E-1,5.9345293E-1,-1.2817041E0,-5.8915806E-1,-5.774705E-2,-6.105789E-1,8.7424225E-1,-9.819899E-3,5.689343E-3,-5.6814504E-1,3.7355626E-1,1.9077454E-2,-8.348213E-1,2.1116915E-1,2.177396E-1,1.4635056E0,1.1619306E0,1.6169429E-1,-1.4131781E0,-4.7393793E-1,4.1904858E-1,-7.6996636E-1,4.4494506E-2,5.0045574E-1,-2.63064E-2,-1.0706701E0,-3.724163E-4,3.317622E-1,1.3368102E0,5.132098E-1,1.6690142E-1,-1.3787379E0,-2.8326234E-1,9.482393E-1,-9.349762E-1,2.5152928E-1,-7.365504E-2,1.1933002E0,-9.960198E-1,-2.5076863E-1,1.8301915E-1,1.3951796E0,5.809105E-3,-5.5030745E-2,-1.5639593E-1,5.984698E-1,-7.6486856E-1,5.650818E-1,-6.1294806E-1,5.408007E-1,3.0447258E-2,-9.295283E-2],"categories":[],"categories_nodes":[],"categories_segments":[],"categories_sizes":[],"default_left":[1,1,1,1,1,1,1,1,1,1,1,1,1,1,1,1,1,1,1,1,1,0,1,1,0,1,0,1,1,1,1,1,1,0,1,1,1,1,0,1,1,0,0,1,0,1,1,0,1,1,1,1,1,1,1,1,1,0,0,0,0,0,0,0,0,0,0,0,0,0,0,0,0,0,0,0,0,0,0,0,0,0,0,0,0,0,0,0,0,0,0,0,0,0,0,0,0],"id":14,"left_children":[1,3,5,7,9,11,13,15,17,19,21,23,25,27,29,31,33,35,37,39,41,-1,43,45,-1,47,-1,49,51,53,55,57,59,-1,61,63,65,67,-1,69,71,-1,-1,73,-1,75,77,-1,79,81,83,85,87,89,91,93,95,-1,-1,-1,-1,-1,-1,-1,-1,-1,-1,-1,-1,-1,-1,-1,-1,-1,-1,-1,-1,-1,-1,-1,-1,-1,-1,-1,-1,-1,-1,-1,-1,-1,-1,-1,-1,-1,-1,-1,-1],"loss_changes":[1.1105163E0,3.139306E0,2.0229897E0,5.8767495E0,2.5464582E0,2.8632832E0,1.4287784E0,5.271166E0,7.766666E0,2.8980136E0,3.8545449E0,3.8546834E0,2.5035315E0,2.318269E0,2.6725197E0,6.079667E0,2.232047E0,1.6383996E0,4.8299503E0,2.4369385E0,1.6648128E0,0E0,1.5689106E0,2.8443444E0,0E0,3.5808277E-1,0E0,6.0321665E0,5.9672666E0,4.622707E0,3.3570476E0,4.866482E0,2.033071E0,0E0,7.8579235E-1,2.9987335E-2,1.7267797E0,4.454915E0,0E0,1.1364469E1,4.10027E0,0E0,0E0,2.2855759E-1,0E0,6.1742835E0,2.6714525E0,0E0,2.676401E0,3.9399347E0,2.805709E0,2.4989347E0,2.9702942E0,4.242651E0,5.119711E0,4.795518E0,2.7426696E0,0E0,0E0,0E0,0E0,0E0,0E0,0E0,0E0,0E0,0E0,0E0,0E0,0E0,0E0,0E0,0E0,0E0,0E0,0E0,0E0,0E0,0E0,0E0,0E0,0E0,0E0,0E0,0E0,0E0,0E0,0E0,0E0,0E0,0E0,0E0,0E0,0E0,0E0,0E0,0E0],"parents":[2147483647,0,0,1,1,2,2,3,3,4,4,5,5,6,6,7,7,8,8,9,9,10,10,11,11,12,12,13,13,14,14,15,15,16,16,17,17,18,18,19,19,20,20,22,22,23,23,25,25,27,27,28,28,29,29,30,30,31,31,32,32,34,34,35,35,36,36,37,37,39,39,40,40,43,43,45,45,46,46,48,48,49,49,50,50,51,51,52,52,53,53,54,54,55,55,56,56],"right_children":[2,4,6,8,10,12,14,16,18,20,22,24,26,28,30,32,34,36,38,40,42,-1,44,46,-1,48,-1,50,52,54,56,58,60,-1,62,64,66,68,-1,70,72,-1,-1,74,-1,76,78,-1,80,82,84,86,88,90,92,94,96,-1,-1,-1,-1,-1,-1,-1,-1,-1,-1,-1,-1,-1,-1,-1,-1,-1,-1,-1,-1,-1,-1,-1,-1,-1,-1,-1,-1,-1,-1,-1,-1,-1,-1,-1,-1,-1,-1,-1,-1],"split_conditions":[9.55E1,3.05E1,9.75E1,4.5175E1,9.8685E1,5E-1,5.25E1,6.2414E2,4.703E1,9.7925E1,5.85E1,6.65E1,9.204E1,9.258501E1,1.085E2,5E-1,3.3870003E1,8.15E1,2.13357E3,3.85E1,6.85E1,-1.9342577E-1,5.55E1,7.5644E2,-3.477875E-1,3E1,1.13615744E-1,8.7755E1,9.4135E1,7.853999E1,1.135E2,6.05E1,2.1E1,-1.167129E-2,9.3493E2,5E-1,8.75E1,5E-1,-3.6453778E-1,8.968E1,9.1705E1,-1.2440824E-2,-3.6078554E-1,4.35E1,1.2809619E-2,5.64575E2,3.1E1,-3.8451123E-1,6.3315E1,8.769E1,8.7925E1,9.3785E1,4.35E1,1.11369E3,9.78E1,1.86305E2,9.3515E1,-2.504464E-1,6.335075E-2,6.5321885E-2,4.3905172E-1,3.4857917E-1,4.850829E-2,-4.2395344E-1,-1.4218138E-1,1.2571459E-1,-2.3098992E-1,1.3348352E-2,1.5013672E-1,-7.89192E-3,-3.2120106E-1,-1.117249E-4,9.952866E-2,4.010431E-1,1.5396295E-1,5.007043E-2,-4.136214E-1,-8.497871E-2,2.844718E-1,-2.8049287E-1,7.545879E-2,-2.2096513E-2,3.579901E-1,-2.9880595E-1,-7.523059E-2,5.4905746E-2,4.1855392E-1,1.7427315E-3,-1.6509224E-2,-4.691878E-2,1.7954095E-1,-2.2946058E-1,1.6952454E-1,-1.8388443E-1,1.622402E-1,9.134178E-3,-2.788585E-2],"split_indices":[2,0,2,1,1,17,0,3,1,1,2,0,1,3,2,13,1,2,3,0,2,0,0,3,0,0,0,3,3,1,2,2,0,0,3,13,2,12,0,1,1,0,0,0,0,3,0,0,1,3,1,3,0,3,1,3,1,0,0,0,0,0,0,0,0,0,0,0,0,0,0,0,0,0,0,0,0,0,0,0,0,0,0,0,0,0,0,0,0,0,0,0,0,0,0,0,0],"split_type":[0,0,0,0,0,0,0,0,0,0,0,0,0,0,0,0,0,0,0,0,0,0,0,0,0,0,0,0,0,0,0,0,0,0,0,0,0,0,0,0,0,0,0,0,0,0,0,0,0,0,0,0,0,0,0,0,0,0,0,0,0,0,0,0,0,0,0,0,0,0,0,0,0,0,0,0,0,0,0,0,0,0,0,0,0,0,0,0,0,0,0,0,0,0,0,0,0],"sum_hessian":[7.4416494E3,7.478157E2,6.693834E3,1.8823326E2,5.595824E2,3.3163395E1,6.6606704E3,4.180178E1,1.4643149E2,5.508325E2,8.749872E0,2.258308E1,1.0580317E1,4.4224224E3,2.238248E3,2.7259848E1,1.4541931E1,7.2182674E0,1.3921323E2,5.4650885E2,4.3237143E0,1.5587823E0,7.1910906E0,2.0863436E1,1.7196448E0,9.142316E0,1.4380007E0,2.1358566E2,4.208837E3,6.220941E1,2.1760386E3,2.156111E1,5.6987376E0,1.956403E0,1.2585528E1,4.224128E0,2.9941397E0,1.3749431E2,1.7189192E0,1.1210924E2,4.343996E2,2.1363707E0,2.1873436E0,5.06634E0,2.1247504E0,1.4138383E1,6.725053E0,1.7452811E0,7.397035E0,1.9255396E2,2.1031702E1,6.648994E0,4.2021875E3,4.218287E1,2.0026543E1,2.605684E1,2.1499817E3,4.956546E0,1.6604565E1,2.49106E0,3.2076778E0,1.1368711E1,1.2168167E0,2.7442474E0,1.4798805E0,1.498502E0,1.4956377E0,1.1192014E2,2.5574162E1,1.01490456E2,1.0618787E1,3.9436276E2,4.003683E1,2.420223E0,2.646117E0,1.189136E1,2.2470229E0,1.995516E0,4.7295365E0,5.161632E0,2.235403E0,1.9106554E2,1.4884138E0,9.300506E0,1.1731196E1,3.4382129E0,3.210781E0,3.1233455E3,1.0788424E3,3.370343E1,8.479438E0,1.7341228E1,2.6853132E0,3.390823E0,2.266602E1,1.9525485E3,1.9743332E2],"tree_param":{"num_deleted":"0","num_feature":"19","num_nodes":"97","size_leaf_vector":"0"}},{"base_weights":[-2.1361078E-4,3.439281E-4,-2.9351774E-1,-2.705457E-4,3.0760458E-1,4.9002904E-1,-5.411132E-1,2.0998201E-4,-3.4023672E-1,7.467275E-1,-5.278139E-1,-2.9044852E-1,1.0675354E0,-8.909953E-1,4.2310712E-1,-2.8771475E-2,6.0763215E-3,3.267616E-1,-8.249794E-1,1.4004221E0,2.8006363E-1,1.844143E-1,-1.2387723E0,-1.1816278E0,8.064069E-2,7.795544E-1,-1.7555778E-1,5.7467884E-1,-3.3705123E-2,1.4406733E-1,2.6803669E-3,8.824748E-1,-3.6166665E-1,-1.1588191E0,1.924598E-1,8.933906E-1,-1.24067396E-1,-6.0560465E-1,8.2618964E-1,-4.4497982E-1,-1.3493987E0,7.391614E-1,-1.5154498E-2,-3.737001E-2,5.280873E-1,7.681727E-2,7.343341E-1,3.6057797E-3,-3.2661283E-1,-6.395543E-1,2.002571E-1],"categories":[],"categories_nodes":[],"categories_segments":[],"categories_sizes":[],"default_left":[1,1,1,1,1,1,1,1,1,1,1,0,0,1,1,1,1,1,1,0,1,1,0,1,0,0,0,1,1,1,1,0,0,0,0,0,1,0,0,0,0,0,0,0,0,0,0,0,0,0,0],"id":15,"left_children":[1,3,5,7,9,11,13,15,17,19,21,-1,-1,23,25,27,29,31,33,-1,35,37,-1,39,-1,-1,-1,41,43,45,47,-1,-1,-1,-1,-1,49,-1,-1,-1,-1,-1,-1,-1,-1,-1,-1,-1,-1,-1,-1],"loss_changes":[1.216475E0,1.4019855E0,3.003263E0,1.2108159E0,5.8310437E0,2.0741017E0,4.1554604E0,1.2586104E0,3.6520052E0,2.6975284E0,3.1106927E0,0E0,0E0,2.5068774E0,9.1788363E-1,3.7296436E0,2.884704E0,2.277645E0,2.3772225E0,0E0,1.8854522E0,2.383346E0,0E0,2.1986866E-1,0E0,0E0,0E0,9.9705005E-1,2.5667315E0,5.812867E0,1.8325645E0,0E0,0E0,0E0,0E0,0E0,9.9641675E-1,0E0,0E0,0E0,0E0,0E0,0E0,0E0,0E0,0E0,0E0,0E0,0E0,0E0,0E0],"parents":[2147483647,0,0,1,1,2,2,3,3,4,4,5,5,6,6,7,7,8,8,9,9,10,10,13,13,14,14,15,15,16,16,17,17,18,18,20,20,21,21,23,23,27,27,28,28,29,29,30,30,36,36],"right_children":[2,4,6,8,10,12,14,16,18,20,22,-1,-1,24,26,28,30,32,34,-1,36,38,-1,40,-1,-1,-1,42,44,46,48,-1,-1,-1,-1,-1,50,-1,-1,-1,-1,-1,-1,-1,-1,-1,-1,-1,-1,-1,-1],"split_conditions":[9.9884995E1,9.9715E1,7.49565E2,9.9615005E1,5E-1,5E-1,5E-1,2.65E1,4.15E1,9.9759995E1,4.35E1,-8.7134555E-2,3.2026064E-1,5E-1,4.45E1,5.35E1,2.75E1,9.9675E1,6.35E1,4.2012665E-1,3.5E1,1.4967E3,-3.7163168E-1,9.9915E1,2.4192208E-2,2.3386633E-1,-5.2667335E-2,8.9115005E1,4.975E2,9.354E1,4.995E2,2.6474243E-1,-1.085E-1,-3.4764573E-1,5.7737943E-2,2.680172E-1,4.55E1,-1.816814E-1,2.478569E-1,-1.3349395E-1,-4.0481964E-1,2.2174843E-1,-4.5463494E-3,-1.1211004E-2,1.584262E-1,2.304518E-2,2.2030024E-1,1.081734E-3,-9.798385E-2,-1.9186631E-1,6.007713E-2],"split_indices":[1,1,3,1,16,9,10,0,0,1,0,0,0,12,0,2,0,1,0,0,0,3,0,1,0,0,0,1,2,1,2,0,0,0,0,0,0,0,0,0,0,0,0,0,0,0,0,0,0,0,0],"split_type":[0,0,0,0,0,0,0,0,0,0,0,0,0,0,0,0,0,0,0,0,0,0,0,0,0,0,0,0,0,0,0,0,0,0,0,0,0,0,0,0,0,0,0,0,0,0,0,0,0,0,0],"sum_hessian":[7.437302E3,7.424188E3,1.3113737E1,7.410367E3,1.382047E1,2.9137282E0,1.0200009E1,7.400906E3,9.461483E0,9.128433E0,4.692036E0,1.4504992E0,1.4632291E0,7.539961E0,2.6600485E0,1.2452242E3,6.1556816E3,4.119299E0,5.342184E0,2.9688287E0,6.159605E0,2.7139E0,1.9781358E0,5.637553E0,1.9024073E0,1.477929E0,1.1821194E0,9.161573E0,1.2360626E3,1.4685756E2,6.008824E3,2.1233883E0,1.9959109E0,3.917746E0,1.4244378E0,1.9657105E0,4.1938944E0,1.2417182E0,1.472182E0,1.723282E0,3.9142716E0,6.9658794E0,2.1956937E0,1.2289789E3,7.0838413E0,1.328517E2,1.400587E1,5.992971E3,1.5853001E1,1.2442707E0,2.9496236E0],"tree_param":{"num_deleted":"0","num_feature":"19","num_nodes":"51","size_leaf_vector":"0"}},{"base_weights":[-7.51243E-5,-2.913235E-4,6.334754E-1,5.919024E-5,-7.319759E-1,2.12257E-3,-6.4259805E-2,1.1984068E-3,1.1157926E0,-5.31225E-1,3.4359183E-2,1.91673E-3,-7.4047965E-1,1.4840543E0,8.423374E-3,5.594705E-2,-7.102326E-1,-3.1412137E-1,1.08191326E-1,7.745728E-4,6.769677E-1,-9.116725E-1,-1.4416958E-1,6.664853E-1,-2.7998814E-1,-4.550393E-1,-1.1261386E0,5.8430053E-2,-7.097433E-1,1.8970801E-1,-2.8541434E-1],"categories":[],"categories_nodes":[],"categories_segments":[],"categories_sizes":[],"default_left":[1,1,0,1,0,1,1,1,1,1,1,1,1,0,0,1,1,1,1,0,0,0,0,0,0,0,0,0,0,0,0],"id":16,"left_children":[1,3,-1,5,-1,7,9,11,13,15,17,19,21,-1,-1,23,25,27,29,-1,-1,-1,-1,-1,-1,-1,-1,-1,-1,-1,-1],"loss_changes":[1.0186409E0,1.9065849E0,0E0,9.8638463E-1,0E0,7.4103646E0,1.0657218E1,3.8353846E0,2.4220314E0,4.280155E0,4.965711E0,5.5433717E0,5.796397E-1,0E0,0E0,2.3099525E0,2.776804E0,5.018386E0,5.1529055E0,0E0,0E0,0E0,0E0,0E0,0E0,0E0,0E0,0E0,0E0,0E0,0E0],"parents":[2147483647,0,0,1,1,3,3,5,5,6,6,7,7,8,8,9,9,10,10,11,11,12,12,15,15,16,16,17,17,18,18],"right_children":[2,4,-1,6,-1,8,10,12,14,16,18,20,22,-1,-1,24,26,28,30,-1,-1,-1,-1,-1,-1,-1,-1,-1,-1,-1,-1],"split_conditions":[5.329294E-1,5.293062E-1,1.9004263E-1,1.9630349E3,-2.1959278E-1,1.9591799E3,2.00646E3,1.9533E3,9.3455E1,1.72E2,1.435E2,1.941E3,5E-1,4.4521633E-1,2.5270123E-3,1.978E3,1.989845E3,5E-1,9.8045E1,2.3237184E-4,2.0309031E-1,-2.7350175E-1,-4.3250877E-2,1.999456E-1,-8.3996445E-2,-1.3651179E-1,-3.3784157E-1,1.7529016E-2,-2.12923E-1,5.6912404E-2,-8.562431E-2],"split_indices":[18,18,0,3,0,3,3,3,1,2,2,3,13,0,0,3,3,7,1,0,0,0,0,0,0,0,0,0,0,0,0],"split_type":[0,0,0,0,0,0,0,0,0,0,0,0,0,0,0,0,0,0,0,0,0,0,0,0,0,0,0,0,0,0,0],"sum_hessian":[7.4344478E3,7.4329106E3,1.5369415E0,7.430351E3,2.559593E0,7.2003286E3,2.300225E2,7.195359E3,4.9698906E0,3.9343357E1,1.9067915E2,7.189393E3,5.965589E0,3.4743233E0,1.4955673E0,9.352663E0,2.9990696E1,3.2767097E1,1.5791206E2,7.178249E3,1.1144141E1,4.2240605E0,1.7415286E0,2.97033E0,6.382333E0,1.9884174E1,1.0106522E1,1.7314548E1,1.5452549E1,1.3124826E2,2.6663803E1],"tree_param":{"num_deleted":"0","num_feature":"19","num_nodes":"31","size_leaf_vector":"0"}},{"base_weights":[-9.5461655E-5,-3.793681E-2,3.269328E-3,-8.668918E-2,1.5105295E-1,4.011533E-1,-6.3182856E-4,-7.531679E-2,-1.1746423E0,4.4088104E-1,4.0661186E-2,-7.409437E-1,4.4731838E-1,-1.1529639E0,8.932768E-4,-5.7487518E-2,-3.8909408E-1,-1.4640354E0,-1.4126042E-1,2.6666686E-1,1.0126637E0,-4.3590504E-1,1.0485732E-1,1.073317E0,3.1626436E-1,2.1530981E-1,-1.5707729E0,4.254259E-1,-3.901143E-4,-1.0202902E-1,7.84611E-2,-6.8985665E-1,-7.978697E-3,6.1728805E-1,-1.5637842E-1,1.2650654E0,-2.1648629E-2,-1.0910044E0,2.1444853E-1,2.269213E-1,-1.9723333E-1,1.3260243E0,-2.2138419E-2,1.4308013E-1,7.2797793E-1,6.38899E-1,-1.3651863E-1,-1.0185829E0,2.1321748E-4,5.1883984E-1,-1.19938985E-1,6.9029105E-1,4.7457544E-3,2.4399647E-1,-8.1318325E-1,5.432582E-1,-4.351839E-1,2.6524967E-1,9.7063726E-1,-4.4920334E-1,1.020173E0,3.9463064E-1,1.4576596E0,-4.6001276E-1,-1.3656508E0,-3.972272E-1,6.9629335E-1,3.734287E-1,-1.9638471E-1,-8.7401307E-1,-9.2066254E-4,1.5724732E0,7.8291595E-2,-1.2363144E-1,4.0957642E-1,9.829577E-1,-8.5847385E-2,9.1242653E-1,-4.2716503E-1,7.004906E-1,-6.6600895E-1,1.6776194E-1,-2.2239054E-3],"categories":[],"categories_nodes":[],"categories_segments":[],"categories_sizes":[],"default_left":[1,1,1,1,1,1,1,1,1,1,1,0,1,1,1,1,1,0,0,1,1,1,1,1,1,0,0,1,1,1,1,1,1,1,1,1,0,1,1,1,1,1,0,1,1,1,1,0,1,0,0,0,0,0,0,0,0,0,0,0,0,0,0,0,0,0,0,0,0,0,0,0,0,0,0,0,0,0,0,0,0,0,0],"id":17,"left_children":[1,3,5,7,9,11,13,15,17,19,21,-1,23,25,27,29,31,-1,-1,33,35,37,39,41,43,-1,-1,45,47,49,51,53,55,57,59,61,-1,63,65,67,69,71,-1,73,75,77,79,-1,81,-1,-1,-1,-1,-1,-1,-1,-1,-1,-1,-1,-1,-1,-1,-1,-1,-1,-1,-1,-1,-1,-1,-1,-1,-1,-1,-1,-1,-1,-1,-1,-1,-1,-1],"loss_changes":[9.4662166E-1,5.606571E0,1.0597867E1,5.8903193E0,3.9767778E0,3.8267393E0,1.1885024E1,2.6590192E0,1.2676482E0,3.1503577E0,2.8455966E0,0E0,4.939067E0,5.448207E0,3.6801417E0,2.761376E0,2.92852E0,0E0,0E0,4.201627E0,2.027471E0,4.9453707E0,3.0485446E0,2.9970732E0,3.7904224E0,0E0,0E0,2.5293477E0,4.1374936E0,3.8754487E0,5.0830884E0,1.8447309E0,3.1334012E0,1.6501412E0,5.0543256E0,4.5999527E-1,0E0,3.5497904E-1,2.1584702E0,3.7002604E0,3.184884E0,2.5605545E0,0E0,2.8718858E0,3.3896265E0,4.7431254E0,3.3155549E0,0E0,2.7492423E0,0E0,0E0,0E0,0E0,0E0,0E0,0E0,0E0,0E0,0E0,0E0,0E0,0E0,0E0,0E0,0E0,0E0,0E0,0E0,0E0,0E0,0E0,0E0,0E0,0E0,0E0,0E0,0E0,0E0,0E0,0E0,0E0,0E0,0E0],"parents":[2147483647,0,0,1,1,2,2,3,3,4,4,5,5,6,6,7,7,8,8,9,9,10,10,12,12,13,13,14,14,15,15,16,16,19,19,20,20,21,21,22,22,23,23,24,24,27,27,28,28,29,29,30,30,31,31,32,32,33,33,34,34,35,35,37,37,38,38,39,39,40,40,41,41,43,43,44,44,45,45,46,46,48,48],"right_children":[2,4,6,8,10,12,14,16,18,20,22,-1,24,26,28,30,32,-1,-1,34,36,38,40,42,44,-1,-1,46,48,50,52,54,56,58,60,62,-1,64,66,68,70,72,-1,74,76,78,80,-1,82,-1,-1,-1,-1,-1,-1,-1,-1,-1,-1,-1,-1,-1,-1,-1,-1,-1,-1,-1,-1,-1,-1,-1,-1,-1,-1,-1,-1,-1,-1,-1,-1,-1,-1],"split_conditions":[3.5864998E1,5E-1,3.6485E1,3.5815002E1,1.665E2,6.5E1,3.6565002E1,4.755E2,5.379E2,1.405E2,1.975E2,-2.2228311E-1,3.5945E1,2.55675E2,3.6775E1,5E-1,4.875E2,-4.3921062E-1,-4.2378128E-2,9.95E1,7E2,4.05E1,5.7825E2,5.35E1,5E-1,6.459295E-2,-4.7123188E-1,5.25E1,3.6815002E1,6.35E1,2.25E1,2.35E1,3.68065E2,4.7715002E2,6.45E1,3.1E1,-6.4945887E-3,1.815E2,5E-1,5.85E1,6.271E2,4.27E2,-6.641526E-3,4.45E1,4.175E2,6.96635E2,2.675E2,-3.055749E-1,3.7695E1,1.5565196E-1,-3.5981696E-2,2.0708732E-1,1.4237263E-3,7.3198944E-2,-2.4395499E-1,1.6297746E-1,-1.3055518E-1,7.9574905E-2,2.911912E-1,-1.34761E-1,3.060519E-1,1.183892E-1,4.372979E-1,-1.3800384E-1,-4.0969524E-1,-1.1916816E-1,2.0888801E-1,1.1202861E-1,-5.8915418E-2,-2.6220393E-1,-2.7619879E-4,4.7174197E-1,2.348748E-2,-3.7089434E-2,1.2287293E-1,2.9488733E-1,-2.5754217E-2,2.7372798E-1,-1.2814951E-1,2.1014719E-1,-1.998027E-1,5.0328583E-2,-6.6717167E-4],"split_indices":[1,9,1,1,2,2,1,2,3,2,2,0,1,3,1,15,2,0,0,2,3,0,3,0,16,0,0,0,1,2,0,0,3,3,0,0,0,2,7,0,3,2,0,0,2,3,2,0,1,0,0,0,0,0,0,0,0,0,0,0,0,0,0,0,0,0,0,0,0,0,0,0,0,0,0,0,0,0,0,0,0,0,0],"split_type":[0,0,0,0,0,0,0,0,0,0,0,0,0,0,0,0,0,0,0,0,0,0,0,0,0,0,0,0,0,0,0,0,0,0,0,0,0,0,0,0,0,0,0,0,0,0,0,0,0,0,0,0,0,0,0,0,0,0,0,0,0,0,0,0,0,0,0,0,0,0,0,0,0,0,0,0,0,0,0,0,0,0,0],"sum_hessian":[7.4325283E3,6.060826E2,6.826446E3,4.822271E2,1.2385546E2,6.529307E1,6.761153E3,4.7829672E2,3.9304156E0,3.3337013E1,9.051845E1,1.9519947E0,6.3341072E1,7.9386187E0,6.753214E3,4.5370004E2,2.4596672E1,2.7449617E0,1.1854537E0,2.6675684E1,6.6613293E0,1.005844E1,8.046001E1,9.720376E0,5.3620693E1,1.9704162E0,5.9682026E0,1.9357826E1,6.7338564E3,3.419235E2,1.1177655E2,1.3294797E1,1.1301874E1,1.4335349E1,1.2340334E1,5.175308E0,1.4860208E0,4.6733904E0,5.3850493E0,5.7482304E1,2.2977707E1,7.727309E0,1.9930668E0,3.8692505E1,1.4928191E1,1.39293585E1,5.428468E0,2.9885957E0,6.7308677E3,8.802589E0,3.331209E2,1.11197195E1,1.0065683E2,1.4367776E0,1.1858019E1,4.8159895E0,6.485885E0,8.057958E0,6.2773914E0,1.0376093E1,1.9642413E0,1.4900427E0,3.6852655E0,2.2284722E0,2.4449184E0,2.4502292E0,2.9348202E0,4.279029E1,1.4692012E1,4.390273E0,1.8587433E1,6.2354383E0,1.4918711E0,1.9606375E1,1.9086128E1,1.1208599E1,3.7195926E0,1.1199851E1,2.729508E0,1.9782819E0,3.4501867E0,9.552929E1,6.6353384E3],"tree_param":{"num_deleted":"0","num_feature":"19","num_nodes":"83","size_leaf_vector":"0"}},{"base_weights":[-2.7122851E-5,-1.8286277E-2,6.6001993E-3,-7.6449737E-3,-2.2081934E-1,1.2450877E-1,1.9155953E-4,-2.589451E-2,9.0786345E-2,-1.3669404E-2,-6.380253E-1,4.8255217E-1,3.342201E-2,-6.8929186E-3,8.258812E-2,-1.1228821E-2,-4.0421927E-1,1.3658778E-1,-3.2260564E-1,-3.410158E-1,2.5077364E-1,-8.432266E-2,-8.11549E-1,6.3793516E-1,1.4268609E-2,-9.1634333E-1,6.466689E-2,-5.68848E-3,-4.395733E-1,2.1970049E-2,3.064854E-1,-2.604165E-2,2.4524763E-1,-6.7940784E-1,-6.89008E-2,1.1711209E-2,2.474283E-1,-4.771483E-1,5.0549376E-1,5.190567E-1,-5.035277E-1,1.6977149E-1,1.22777E0,5.266197E-1,-7.946666E-1,-9.86768E-1,-2.8002358E-3,-3.9984816E-1,6.977646E-1,-2.550206E-1,1.0159975E0,1.9158804E-1,-1.1771395E0,1.691075E-1,-2.2979166E-1,-6.22597E-3,1.0396392E0,-9.254507E-1,-2.0110325E-3,-1.2111698E-1,1.6348344E-1,4.184598E-1,-2.4655584E-1,8.61665E-2,-4.382894E-2,7.194485E-1,1.6882125E-1,-2.1018471E-1,-9.0085936E-1,9.5172477E-1,-2.6741573E-1,-3.2925673E-2,8.1874824E-1,3.0293685E-1,-4.223165E-1,-1.1192449E0,-2.1566376E-1,7.6568896E-1,-8.370874E-2,-2.8719375E-1,1.1318517E0,-1.3934563E-1,-8.636293E-1,4.007537E-1,-4.2000747E-1,1.190131E0,-7.28214E-1,-1.2554082E0,3.502964E-1,-1.4458442E0,-6.581466E-1,-8.213108E-1,6.053844E-1,1.0594504E0,5.6671554E-1,6.0753787E-1,-4.449479E-1,-1.4840422E0,-4.6073002E-1,-3.424754E-1,2.175893E-1,-8.035612E-2,-5.2870697E-1,-5.137875E-3,-3.676862E-1,-1.1457059E0,5.2781835E-2,6.6295874E-1,-3.1855947E-1,-8.821289E-1,-7.875016E-2,1.8371712E-1,-5.3499955E-1,-5.308486E-1,4.7776693E-1,-6.10649E-1,4.4616988E-1],"categories":[],"categories_nodes":[],"categories_segments":[],"categories_sizes":[],"default_left":[1,1,1,1,1,1,1,1,1,1,1,1,1,1,1,1,1,1,1,1,1,1,1,1,1,1,1,1,1,1,1,1,1,1,1,1,1,1,1,1,1,1,0,1,1,1,1,0,1,1,0,0,1,1,1,1,0,1,1,1,1,1,1,0,0,0,0,0,0,0,0,0,0,0,0,0,0,0,0,0,0,0,0,0,0,0,0,0,0,0,0,0,0,0,0,0,0,0,0,0,0,0,0,0,0,0,0,0,0,0,0,0,0,0,0,0,0],"id":18,"left_children":[1,3,5,7,9,11,13,15,17,19,21,23,25,27,29,31,33,35,37,39,41,43,45,47,49,51,53,55,57,59,61,63,65,67,69,71,73,75,77,79,81,83,-1,85,87,89,91,-1,93,95,-1,-1,97,99,101,103,-1,105,107,109,111,113,115,-1,-1,-1,-1,-1,-1,-1,-1,-1,-1,-1,-1,-1,-1,-1,-1,-1,-1,-1,-1,-1,-1,-1,-1,-1,-1,-1,-1,-1,-1,-1,-1,-1,-1,-1,-1,-1,-1,-1,-1,-1,-1,-1,-1,-1,-1,-1,-1,-1,-1,-1,-1,-1,-1],"loss_changes":[8.992251E-1,4.263273E0,4.1197977E0,3.3815176E0,8.525456E0,9.150093E0,3.0197034E0,8.804698E0,5.61907E0,5.8859267E0,3.0773163E0,4.1330643E0,6.740167E0,2.479943E0,5.5519867E0,5.817127E0,5.4179335E0,3.6758451E0,4.037795E0,4.5056725E0,2.7704103E0,4.2931547E0,3.5133743E0,2.93153E0,4.360941E0,2.3164306E0,6.7707024E0,2.6760082E0,2.8066325E0,6.56788E0,5.502161E0,2.8915725E0,2.9086342E0,3.1788502E0,5.8885393E0,4.5668683E0,5.3606367E0,4.0425572E0,8.538257E-1,2.9526293E0,3.2956204E0,5.061572E0,0E0,5.363847E0,2.8278203E0,2.1246872E0,3.1959672E0,0E0,1.3313885E0,2.3645644E0,0E0,0E0,6.349211E-1,4.0965166E0,2.536504E0,1.866245E0,0E0,1.4086766E0,1.8852224E0,5.133417E0,2.4021E0,4.3565187E0,4.1336737E0,0E0,0E0,0E0,0E0,0E0,0E0,0E0,0E0,0E0,0E0,0E0,0E0,0E0,0E0,0E0,0E0,0E0,0E0,0E0,0E0,0E0,0E0,0E0,0E0,0E0,0E0,0E0,0E0,0E0,0E0,0E0,0E0,0E0,0E0,0E0,0E0,0E0,0E0,0E0,0E0,0E0,0E0,0E0,0E0,0E0,0E0,0E0,0E0,0E0,0E0,0E0,0E0,0E0,0E0],"parents":[2147483647,0,0,1,1,2,2,3,3,4,4,5,5,6,6,7,7,8,8,9,9,10,10,11,11,12,12,13,13,14,14,15,15,16,16,17,17,18,18,19,19,20,20,21,21,22,22,23,23,24,24,25,25,26,26,27,27,28,28,29,29,30,30,31,31,32,32,33,33,34,34,35,35,36,36,37,37,38,38,39,39,40,40,41,41,43,43,44,44,45,45,46,46,48,48,49,49,52,52,53,53,54,54,55,55,57,57,58,58,59,59,60,60,61,61,62,62],"right_children":[2,4,6,8,10,12,14,16,18,20,22,24,26,28,30,32,34,36,38,40,42,44,46,48,50,52,54,56,58,60,62,64,66,68,70,72,74,76,78,80,82,84,-1,86,88,90,92,-1,94,96,-1,-1,98,100,102,104,-1,106,108,110,112,114,116,-1,-1,-1,-1,-1,-1,-1,-1,-1,-1,-1,-1,-1,-1,-1,-1,-1,-1,-1,-1,-1,-1,-1,-1,-1,-1,-1,-1,-1,-1,-1,-1,-1,-1,-1,-1,-1,-1,-1,-1,-1,-1,-1,-1,-1,-1,-1,-1,-1,-1,-1,-1,-1,-1],"split_conditions":[3.15E1,4.775E2,3.35E1,1.412505E3,7.6785E1,4.497E1,4.665E2,1.32927E3,9.6880005E1,5.2059998E1,2.15E1,3.865E2,4.6870003E1,2.27952E3,5E-1,9.421E1,7.858501E1,2.535E2,5E-1,2.0885E2,7.553999E1,4.89E2,5E-1,7.15E1,4.3705E1,4.43965E2,5E-1,2.274365E3,2.31696E3,5E-1,6.45E1,1.065E2,9.478E1,2.15E1,8.0715E1,9.597E1,4.605E2,2.15E1,2.6E1,1.3491E2,2.55E1,6.877E1,3.6833102E-1,5E-1,4.975E2,4.84E2,8.5325E1,-1.1995445E-1,3.3004997E1,3.1445E1,3.0479926E-1,5.7476416E-2,5E-1,1.3794E2,8.338E1,9.9774994E1,3.118918E-1,9.9315E1,2.12E2,3.412E1,6.95E1,3.4535E1,6.85E1,2.5849951E-2,-1.3148682E-2,2.1583456E-1,5.0646376E-2,-6.305542E-2,-2.7025783E-1,2.8551745E-1,-8.022472E-2,-9.877702E-3,2.4562448E-1,9.088106E-2,-1.2669495E-1,-3.357735E-1,-6.469913E-2,2.2970669E-1,-2.5112623E-2,-8.615813E-2,3.395555E-1,-4.180369E-2,-2.5908878E-1,1.20226115E-1,-1.2600225E-1,3.570393E-1,-2.1846421E-1,-3.7662247E-1,1.0508893E-1,-4.3375328E-1,-1.9744399E-1,-2.4639325E-1,1.8161532E-1,3.1783512E-1,1.7001466E-1,1.8226136E-1,-1.3348438E-1,-4.4521266E-1,-1.3821901E-1,-1.0274263E-1,6.5276794E-2,-2.4106838E-2,-1.586121E-1,-1.5413626E-3,-1.1030587E-1,-3.437118E-1,1.5834551E-2,1.9888763E-1,-9.5567845E-2,-2.646387E-1,-2.362505E-2,5.5115137E-2,-1.6049987E-1,-1.592546E-1,1.4333008E-1,-1.831947E-1,1.3385098E-1],"split_indices":[0,2,0,3,1,1,2,3,1,1,0,2,1,3,12,1,1,2,9,3,1,2,9,2,1,3,16,3,3,7,0,2,1,0,1,1,2,0,0,3,0,1,0,10,2,2,1,0,1,1,0,0,16,3,1,1,0,1,2,1,0,1,0,0,0,0,0,0,0,0,0,0,0,0,0,0,0,0,0,0,0,0,0,0,0,0,0,0,0,0,0,0,0,0,0,0,0,0,0,0,0,0,0,0,0,0,0,0,0,0,0,0,0,0,0,0,0],"split_type":[0,0,0,0,0,0,0,0,0,0,0,0,0,0,0,0,0,0,0,0,0,0,0,0,0,0,0,0,0,0,0,0,0,0,0,0,0,0,0,0,0,0,0,0,0,0,0,0,0,0,0,0,0,0,0,0,0,0,0,0,0,0,0,0,0,0,0,0,0,0,0,0,0,0,0,0,0,0,0,0,0,0,0,0,0,0,0,0,0,0,0,0,0,0,0,0,0,0,0,0,0,0,0,0,0,0,0,0,0,0,0,0,0,0,0,0,0],"sum_hessian":[7.4290444E3,1.9779021E3,5.4511426E3,1.8801545E3,9.774757E1,2.8006024E2,5.1710825E3,1.5867096E3,2.9344498E2,6.600681E1,3.1740755E1,5.5926582E1,2.2413367E2,4.762516E3,4.0856607E2,1.5284877E3,5.8221863E1,2.6477863E2,2.8666346E1,2.9365969E1,3.6640846E1,7.9282336E0,2.3812523E1,4.1720768E1,1.4205813E1,6.236358E0,2.1789731E2,4.750306E3,1.2210127E1,3.2238223E2,8.618382E1,1.4458793E3,8.260847E1,3.1414505E1,2.6807358E1,1.2502595E2,1.3975269E2,2.4515066E1,4.1512794E0,4.31825E0,2.5047718E1,3.4919464E1,1.7213811E0,4.4013906E0,3.526843E0,1.9391212E1,4.4213095E0,1.9643638E0,3.9756405E1,1.1783531E1,2.4222817E0,1.2388343E0,4.997524E0,1.6116122E2,5.6736084E1,4.7488584E3,1.4477388E0,5.257303E0,6.9528236E0,1.6037152E2,1.6201073E2,7.187468E1,1.4309138E1,1.973138E2,1.2485654E3,1.0298154E1,7.231032E1,1.0697406E1,2.07171E1,3.747272E0,2.3060087E1,1.1938217E2,5.6437764E0,1.2956224E2,1.01904545E1,6.1450477E0,1.8370018E1,2.6718433E0,1.479436E0,2.0942273E0,2.2240229E0,1.3142876E1,1.1904842E1,2.532258E1,9.596884E0,2.9127796E0,1.4886109E0,2.4460661E0,1.0807768E0,6.671526E0,1.27196865E1,1.7353717E0,2.685938E0,8.689537E0,3.1066868E1,1.7296233E0,1.0053908E1,2.748566E0,2.2489576E0,1.3425937E1,1.4773529E2,3.867185E1,1.8064236E1,4.735617E3,1.3241299E1,4.151391E0,1.1059121E0,1.8894149E0,5.063409E0,7.4120317E0,1.5295949E2,1.5816595E2,3.8447795E0,3.758755E0,6.811593E1,9.457046E0,4.8520923E0],"tree_param":{"num_deleted":"0","num_feature":"19","num_nodes":"117","size_leaf_vector":"0"}},{"base_weights":[-1.4893255E-4,-1.7129092E-1,5.2367424E-4,-5.649339E-1,3.843673E-2,1.4326416E-1,-3.9277188E-4,3.675288E-1,-8.826974E-1,4.5559257E-1,-3.584543E-1,4.955438E-1,-2.8970579E-2,-6.058514E-3,2.2371346E-2,5.91852E-1,-3.9934248E-2,-1.0264075E0,-1.07208595E-1,7.94825E-1,-2.7108958E-1,-9.805141E-1,-5.623691E-2,-2.4631572E-1,8.1235087E-1,-2.3205465E-1,7.4219346E-1,-1.1944357E-2,2.9984098E-2,-7.908771E-1,2.4984915E-2,-5.1955336E-1,-1.3325542E0,2.6015761E-1,1.0904917E0,-6.7013305E-1,1.5756226E-1,-3.3018476E-1,-1.187139E0,2.4829854E-1,-6.9339323E-1,4.6829954E-1,-7.819034E-1,9.1861343E-1,1.9656925E-1,4.062685E-2,-6.581161E-1,2.020924E-1,9.911615E-1,-1.0062318E-2,-3.3753258E-1,4.2476773E-2,-3.7863427E-1,-1.0426183E0,-2.2890157E-1,3.471851E-2,-1.7930406E-1,-4.6816427E-2,-7.502784E-1,6.012788E-1,-1.9857731E-1,-2.893226E-1,7.234422E-1,-9.8619014E-1,-2.3099303E-1,5.46465E-1,1.1312062E0,3.3516246E-1,-8.7497514E-1,-1.1273649E0,2.1828346E-1,5.768617E-1,-2.613233E-1,-2.1916544E-3,-6.0403705E-2,-6.478491E-1,1.15640186E-1,3.708708E-2,1.0259526E0,-9.6480113E-1,-1.539643E-1,3.0488588E-2,1.0575494E0,-1.0213177E0,-1.2406255E-1],"categories":[],"categories_nodes":[],"categories_segments":[],"categories_sizes":[],"default_left":[1,1,1,1,1,1,1,1,1,1,1,1,1,1,1,0,0,1,0,1,1,1,1,1,1,1,1,1,1,1,1,1,0,1,0,0,0,0,0,1,0,0,1,1,0,1,1,1,0,1,1,1,1,0,0,1,1,0,0,0,0,0,0,0,0,0,0,0,0,0,0,0,0,0,0,0,0,0,0,0,0,0,0,0,0],"id":19,"left_children":[1,3,5,7,9,11,13,15,17,19,21,23,25,27,29,-1,-1,31,-1,33,35,37,39,41,43,45,47,49,51,53,55,57,-1,59,-1,-1,-1,-1,-1,61,-1,-1,63,65,-1,67,69,71,-1,73,75,77,79,-1,-1,81,83,-1,-1,-1,-1,-1,-1,-1,-1,-1,-1,-1,-1,-1,-1,-1,-1,-1,-1,-1,-1,-1,-1,-1,-1,-1,-1,-1,-1],"loss_changes":[8.5453445E-1,2.4209397E0,9.673877E-1,3.3363838E0,3.4573963E0,2.8767872E0,9.4791734E-1,3.2432115E-1,7.676506E-1,2.7152915E0,1.9668267E0,3.853958E0,5.2824507E0,1.2487757E0,3.1329327E0,0E0,0E0,3.2056618E-1,0E0,8.4939194E-1,7.851716E-1,7.2407484E-2,1.7825584E0,2.440486E0,5.475154E-1,3.115941E0,7.463448E-1,3.0968847E0,4.234581E0,4.2947173E-1,2.911311E0,4.1175628E-1,0E0,7.243054E-1,0E0,0E0,0E0,0E0,0E0,1.8318518E0,0E0,0E0,1.6300082E-1,1.1106062E-1,0E0,4.919637E0,4.5373855E0,7.5467753E-1,0E0,1.9934125E0,4.15971E0,4.2171516E0,3.0933049E0,0E0,0E0,6.0047817E0,2.9714117E0,0E0,0E0,0E0,0E0,0E0,0E0,0E0,0E0,0E0,0E0,0E0,0E0,0E0,0E0,0E0,0E0,0E0,0E0,0E0,0E0,0E0,0E0,0E0,0E0,0E0,0E0,0E0,0E0],"parents":[2147483647,0,0,1,1,2,2,3,3,4,4,5,5,6,6,7,7,8,8,9,9,10,10,11,11,12,12,13,13,14,14,17,17,19,19,20,20,21,21,22,22,23,23,24,24,25,25,26,26,27,27,28,28,29,29,30,30,31,31,33,33,39,39,42,42,43,43,45,45,46,46,47,47,49,49,50,50,51,51,52,52,55,55,56,56],"right_children":[2,4,6,8,10,12,14,16,18,20,22,24,26,28,30,-1,-1,32,-1,34,36,38,40,42,44,46,48,50,52,54,56,58,-1,60,-1,-1,-1,-1,-1,62,-1,-1,64,66,-1,68,70,72,-1,74,76,78,80,-1,-1,82,84,-1,-1,-1,-1,-1,-1,-1,-1,-1,-1,-1,-1,-1,-1,-1,-1,-1,-1,-1,-1,-1,-1,-1,-1,-1,-1,-1,-1],"split_conditions":[5.15E1,5.4675E2,5.45E1,1.5996E2,1.036115E3,4.1671503E2,5E-1,5.391E1,7.8805E1,5.25E1,1.2165E3,4.2985E1,5E-1,4.375E2,5.55E1,1.775556E-1,-1.1980275E-2,5.05E1,-3.216258E-2,3.95E1,5.7E1,1.10613E3,9.2345E1,5E-1,5E-1,5.45E1,8.9477E2,4.355E2,9.8015E1,8.96615E2,1.8576699E3,5E-1,-3.997663E-1,5.729E1,3.271475E-1,-2.0103993E-1,4.7268678E-2,-9.905543E-2,-3.5614172E-1,1.519715E3,-2.0801798E-1,1.4048986E-1,1.22715E2,3.65E1,5.8970775E-2,8.7975E1,5E-1,6.3147E2,2.9734847E-1,3.835E2,6.887E1,9.769E1,7.40685E2,-3.127855E-1,-6.8670474E-2,1.84205E3,1.872335E3,-1.4044928E-2,-2.2508353E-1,1.8038364E-1,-5.9573196E-2,-8.679679E-2,2.1703267E-1,-2.9585704E-1,-6.929791E-2,1.639395E-1,3.3936185E-1,1.00548744E-1,-2.6249257E-1,-3.3820948E-1,6.548504E-2,1.7305851E-1,-7.839699E-2,-6.5749633E-4,-1.8121112E-2,-1.9435473E-1,3.4692056E-2,1.1126124E-2,3.0778578E-1,-2.8944036E-1,-4.618929E-2,9.146577E-3,3.1726483E-1,-3.0639532E-1,-3.721877E-2],"split_indices":[2,3,2,3,3,3,13,1,1,0,3,1,12,2,2,0,0,2,0,0,0,3,1,7,11,0,3,2,1,3,3,5,0,1,0,0,0,0,0,3,0,0,3,0,0,1,16,3,0,2,1,1,3,0,0,3,3,0,0,0,0,0,0,0,0,0,0,0,0,0,0,0,0,0,0,0,0,0,0,0,0,0,0,0,0],"split_type":[0,0,0,0,0,0,0,0,0,0,0,0,0,0,0,0,0,0,0,0,0,0,0,0,0,0,0,0,0,0,0,0,0,0,0,0,0,0,0,0,0,0,0,0,0,0,0,0,0,0,0,0,0,0,0,0,0,0,0,0,0,0,0,0,0,0,0,0,0,0,0,0,0,0,0,0,0,0,0,0,0,0,0,0,0],"sum_hessian":[7.421772E3,2.8061155E1,7.393711E3,9.16517E0,1.8895987E1,4.6176613E1,7.347534E3,2.2896588E0,6.8755107E0,9.140685E0,9.755301E0,1.4546613E1,3.163E1,5.8838433E3,1.463691E3,1.184835E0,1.1048238E0,5.5275993E0,1.3479117E0,6.167689E0,2.9729958E0,2.4558918E0,7.29941E0,4.4196734E0,1.0126939E1,2.5590017E1,6.0399804E0,5.0584546E3,8.25389E2,3.722681E0,1.4599684E3,3.0971138E0,2.4304852E0,2.8655984E0,3.3020906E0,1.2479217E0,1.725074E0,1.218569E0,1.2373228E0,5.351775E0,1.9476343E0,1.9472126E0,2.4724612E0,8.217157E0,1.9097813E0,1.6155233E1,9.434786E0,2.4773784E0,3.5626023E0,